  DATE: 2021-06-05 CONTRIBUTOR: Shuozhi Xu (shuozhixu@ucsb.edu)
  CITATION: Shuozhi Xu, Saeed Zare Chavoshi, Yanqing Su, Comput. Mater. Sci. 202 (2022) 110942
  Generated from https://www.ctcms.nist.gov/potentials/Download/2004--Zhou-X-W-Johnson-R-A-Wadley-H-N-G--Mg/3/Zhou04_create_v2.f
    6 Nb Mo W Ta Cr V         
 2000  0.2771569812852027E+00 2000  0.3199268520872213E-02  0.6395337773223553E+01
   41     92.908         4.0421    fcc     
  0.0000000000000000E+00 -0.1223060229149548E+00 -0.2425662937406874E+00 -0.3607983643737844E+00 -0.4770197867108261E+00
 -0.5912481126483971E+00 -0.7035008940830814E+00 -0.8137956829114579E+00 -0.9221500310301156E+00 -0.1028581490335633E+01
 -0.1133107612724598E+01 -0.1235745950093590E+01 -0.1336514054339191E+01 -0.1435429477357989E+01 -0.1532509771046562E+01
 -0.1627772487301498E+01 -0.1721235178019377E+01 -0.1812915395096782E+01 -0.1902830690430299E+01 -0.1990998615916509E+01
 -0.2077436723451995E+01 -0.2162162564933341E+01 -0.2245193692257129E+01 -0.2326547657319944E+01 -0.2406242012018369E+01
 -0.2484294308248985E+01 -0.2560722097908377E+01 -0.2635542932893128E+01 -0.2708774365099820E+01 -0.2780433946425038E+01
 -0.2850539228765363E+01 -0.2919107764017382E+01 -0.2986157104077674E+01 -0.3051704800842824E+01 -0.3115768406209415E+01
 -0.3178365472074030E+01 -0.3239513550333252E+01 -0.3299230192883664E+01 -0.3357532951621851E+01 -0.3414439378444395E+01
 -0.3469967025247877E+01 -0.3524133443928884E+01 -0.3576956186383996E+01 -0.3628452804509799E+01 -0.3678640850202873E+01
 -0.3727537875359804E+01 -0.3775161431877173E+01 -0.3821529071651565E+01 -0.3866658346579563E+01 -0.3910566808557748E+01
 -0.3953272009482706E+01 -0.3994791501251017E+01 -0.4035142835759268E+01 -0.4074343564904041E+01 -0.4112411240581915E+01
 -0.4149363414689479E+01 -0.4185217639123313E+01 -0.4219991465780002E+01 -0.4253702446556127E+01 -0.4286368133348271E+01
 -0.4318006078053021E+01 -0.4348633832566956E+01 -0.4378268948786662E+01 -0.4406928978608719E+01 -0.4434631473929714E+01
 -0.4461393986646227E+01 -0.4487234068654844E+01 -0.4512169271852144E+01 -0.4536217148134716E+01 -0.4559395249399137E+01
 -0.4581721127541995E+01 -0.4603212334459871E+01 -0.4623886422049347E+01 -0.4643760942207010E+01 -0.4662853446829438E+01
 -0.4681181487813221E+01 -0.4698762617054935E+01 -0.4715614386451167E+01 -0.4731754347898500E+01 -0.4747200053293516E+01
 -0.4761969054532799E+01 -0.4776078903512933E+01 -0.4789547152130499E+01 -0.4802391352282082E+01 -0.4814629055864263E+01
 -0.4826277814773629E+01 -0.4837355180906759E+01 -0.4847878706160239E+01 -0.4857865942430651E+01 -0.4867334441614580E+01
 -0.4876301755608606E+01 -0.4884785436309314E+01 -0.4892803035613286E+01 -0.4900372105417106E+01 -0.4907510197617358E+01
 -0.4914234864110625E+01 -0.4920563656793489E+01 -0.4926514127562535E+01 -0.4932102921819286E+01 -0.4937339329943744E+01
 -0.4942226255310690E+01 -0.4946766754630506E+01 -0.4950963884613575E+01 -0.4954820701970282E+01 -0.4958340263411007E+01
 -0.4961525625646134E+01 -0.4964379845386047E+01 -0.4966905979341130E+01 -0.4969107084221761E+01 -0.4970986216738329E+01
 -0.4972546433601213E+01 -0.4973790791520798E+01 -0.4974722347207465E+01 -0.4975344157371599E+01 -0.4975659278723583E+01
 -0.4975670767973799E+01 -0.4975381681832630E+01 -0.4974795077010459E+01 -0.4973914010217669E+01 -0.4972741538164644E+01
 -0.4971280717561766E+01 -0.4969534605119418E+01 -0.4967506257547983E+01 -0.4965198731557845E+01 -0.4962615083859385E+01
 -0.4959758371162986E+01 -0.4956631650179035E+01 -0.4953237977617911E+01 -0.4949580410189998E+01 -0.4945662004605678E+01
 -0.4941485817575336E+01 -0.4937054905809354E+01 -0.4932372318500585E+01 -0.4927437822737899E+01 -0.4922252925132743E+01
 -0.4916819906635857E+01 -0.4911141010862046E+01 -0.4905218444969904E+01 -0.4899054380514563E+01 -0.4892650954274470E+01
 -0.4886010269053195E+01 -0.4879134394457159E+01 -0.4872025367650198E+01 -0.4864685194085805E+01 -0.4857115848217844E+01
 -0.4849319274190548E+01 -0.4841297386508506E+01 -0.4833052070687369E+01 -0.4824585183885975E+01 -0.4815898555520503E+01
 -0.4806993987861322E+01 -0.4797873256613122E+01 -0.4788538111478890E+01 -0.4778990276708302E+01 -0.4769231451631054E+01
 -0.4759263311175634E+01 -0.4749087506374033E+01 -0.4738705664852858E+01 -0.4728119391311306E+01 -0.4717330267986407E+01
 -0.4706339855105993E+01 -0.4695149691329747E+01 -0.4683761294178753E+01 -0.4672176160453902E+01 -0.4660395766643495E+01
 -0.4648421569320416E+01 -0.4636255005529178E+01 -0.4623897493163176E+01 -0.4611350431332439E+01 -0.4598615200722180E+01
 -0.4585693163942437E+01 -0.4572585665869057E+01 -0.4559294033976306E+01 -0.4545819578661352E+01 -0.4532163593560853E+01
 -0.4518327355859904E+01 -0.4504312126593566E+01 -0.4490119150941185E+01 -0.4475749658513721E+01 -0.4461204863634304E+01
 -0.4446485965612179E+01 -0.4431594149010269E+01 -0.4416530583906526E+01 -0.4401296426149222E+01 -0.4385892817606402E+01
 -0.4370320886409623E+01 -0.4354581747192157E+01 -0.4338676501321798E+01 -0.4322606237128464E+01 -0.4306372030126668E+01
 -0.4289974943233081E+01 -0.4273416026979248E+01 -0.4256696319719635E+01 -0.4239816847835127E+01 -0.4222778625932071E+01
 -0.4205582657037029E+01 -0.4188229932787314E+01 -0.4170721433617445E+01 -0.4153058128941619E+01 -0.4135240977332317E+01
 -0.4117270926695118E+01 -0.4099148914439854E+01 -0.4080875867648176E+01 -0.4062452703237635E+01 -0.4043880328122357E+01
 -0.4025159639370413E+01 -0.4006291524357960E+01 -0.3987276860920232E+01 -0.3968116517499459E+01 -0.3948811353289809E+01
 -0.3929362218379399E+01 -0.3909769953889468E+01 -0.3890035392110776E+01 -0.3870159356637296E+01 -0.3850142662497266E+01
 -0.3829986116281667E+01 -0.3809690516270183E+01 -0.3789256652554712E+01 -0.3768685307160482E+01 -0.3747977254164830E+01
 -0.3727133259813701E+01 -0.3706154082635919E+01 -0.3685040473555274E+01 -0.3663793176000504E+01 -0.3642412926013186E+01
 -0.3620900452353607E+01 -0.3599256476604654E+01 -0.3577481713273776E+01 -0.3555576869893042E+01 -0.3533542647117375E+01
 -0.3511379738820962E+01 -0.3489088832191902E+01 -0.3466670607825151E+01 -0.3444125739813749E+01 -0.3421454895838430E+01
 -0.3398658737255602E+01 -0.3375737919183756E+01 -0.3352693090588343E+01 -0.3329524894365135E+01 -0.3306233967422110E+01
 -0.3282820940759907E+01 -0.3259286439550861E+01 -0.3235631083216659E+01 -0.3211855485504660E+01 -0.3187960254562864E+01
 -0.3163945993013616E+01 -0.3139813298026034E+01 -0.3115562761387195E+01 -0.3091194969572113E+01 -0.3066710503812530E+01
 -0.3042109940164540E+01 -0.3017393849575077E+01 -0.2992562797947291E+01 -0.2967617346204827E+01 -0.2942558050355041E+01
 -0.2917385461551168E+01 -0.2892100126153457E+01 -0.2866702585789303E+01 -0.2841193377412405E+01 -0.2815573033360950E+01
 -0.2789842081414841E+01 -0.2764001044852035E+01 -0.2738050442503920E+01 -0.2711990788809852E+01 -0.2685822593870784E+01
 -0.2659546363502066E+01 -0.2633162599285379E+01 -0.2606671798619884E+01 -0.2580074454772523E+01 -0.2553371056927566E+01
 -0.2526562090235352E+01 -0.2499648035860302E+01 -0.2472629371028159E+01 -0.2445506569072513E+01 -0.2418280099480604E+01
 -0.2390950427938410E+01 -0.2363518016375077E+01 -0.2335983323006630E+01 -0.2308346802379053E+01 -0.2280608905410697E+01
 -0.2252770079434061E+01 -0.2224830768236935E+01 -0.2196791412102930E+01 -0.2168652447851407E+01 -0.2140414308876807E+01
 -0.2112077425187404E+01 -0.2083642223443472E+01 -0.2055109126994910E+01 -0.2026478555918301E+01 -0.1997750927053431E+01
 -0.1968926654039278E+01 -0.1940006147349492E+01 -0.1910989814327327E+01 -0.1881878059220109E+01 -0.1852671283213180E+01
 -0.1823369884463374E+01 -0.1793974258132001E+01 -0.1764484796417379E+01 -0.1734901888586886E+01 -0.1705225921008566E+01
 -0.1675457277182309E+01 -0.1645596337770551E+01 -0.1615643480628588E+01 -0.1585599080834454E+01 -0.1555463510718355E+01
 -0.1525237139891745E+01 -0.1494920335275962E+01 -0.1464513461130488E+01 -0.1434016879080807E+01 -0.1403430948145917E+01
 -0.1372756024765410E+01 -0.1341992462826236E+01 -0.1311140613689082E+01 -0.1280200826214394E+01 -0.1249173446788055E+01
 -0.1218058819346719E+01 -0.1186857285402801E+01 -0.1155569184069133E+01 -0.1124194852083306E+01 -0.1092734623831673E+01
 -0.1061188831373041E+01 -0.1029557804462063E+01 -0.9978418705722960E+00 -0.9660413549189946E+00 -0.9341565804815627E+00
 -0.9021878680257620E+00 -0.8701355361255884E+00 -0.8379999011849011E+00 -0.8057812774587456E+00 -0.7734799770744266E+00
 -0.7410963100522914E+00 -0.7086305843262590E+00 -0.6760831057640851E+00 -0.6434541781873709E+00 -0.6107441033913242E+00
 -0.5779531811642498E+00 -0.5450817093068295E+00 -0.5121299836511282E+00 -0.4790982980793778E+00 -0.4459869445425407E+00
 -0.4127962130786028E+00 -0.3795263918306750E+00 -0.3461777670648667E+00 -0.3127506231879218E+00 -0.2792452427646628E+00
 -0.2456619065351930E+00 -0.2120008934319085E+00 -0.1782624805963074E+00 -0.1444469433955671E+00 -0.1105545554389616E+00
 -0.7658558859403375E-01 -0.4254031300262615E-01 -0.8418997096669252E-02  0.2577809238619757E-01  0.6005069038717432E-01
  0.9439853351106495E-01  0.1288213600111964E+00  0.1633189097745337E+00  0.1978909243069661E+00  0.2325371467187550E+00
  0.2672573217101724E+00  0.3020511955572898E+00  0.3369185160979304E+00  0.3718590327178233E+00  0.4068724963368554E+00
  0.4419586593955352E+00  0.4771172758415962E+00  0.5123481011167405E+00  0.5476508921435559E+00  0.5830254073125596E+00
  0.6184714064694238E+00  0.6539886509023103E+00  0.6895769033293674E+00  0.7252359278863698E+00  0.7609654901144962E+00
  0.7967653569482247E+00  0.8326352967034089E+00  0.8685750790654424E+00  0.9045844750775816E+00  0.9406632571293869E+00
  0.9768111989452866E+00  0.1013028075573302E+01  0.1049313663373849E+01  0.1085667740008702E+01  0.1122090084430059E+01
  0.1158580476869721E+01  0.1195138698828417E+01  0.1231764533065216E+01  0.1268457763587073E+01  0.1305218175638497E+01
  0.1342045555691274E+01  0.1378939691434399E+01  0.1415900371764017E+01  0.1452927386773527E+01  0.1490020527743804E+01
  0.1527179587133472E+01  0.1564404358569334E+01  0.1601694636836857E+01  0.1639050217870817E+01  0.1676470898745981E+01
  0.1713956477667908E+01  0.1751506753963891E+01  0.1789121528073924E+01  0.1826800601541806E+01  0.1864543777006331E+01
  0.1902350858192561E+01  0.1940221649903201E+01  0.1978155958010071E+01  0.2016153589445635E+01  0.2054214352194629E+01
  0.2092338055285817E+01  0.2130524508783763E+01  0.2168773523780744E+01  0.2207084912388719E+01  0.2245458487731374E+01
  0.2283894063936259E+01  0.2322391456127028E+01  0.2360950480415702E+01  0.2399570953895071E+01  0.2438252694631116E+01
  0.2476995521655554E+01  0.2515799254958441E+01  0.2554663715480827E+01  0.2593588725107517E+01  0.2632574106659897E+01
  0.2671619683888820E+01  0.2710725281467557E+01  0.2749890724984845E+01  0.2789115840937987E+01  0.2828400456726003E+01
  0.2867744400642879E+01  0.2907147501870871E+01  0.2946609590473873E+01  0.2986130497390828E+01  0.3025710054429262E+01
  0.3065348094258793E+01  0.3105044450404808E+01  0.3144798957242104E+01  0.3184611449988647E+01  0.3224481764699384E+01
  0.3264409738260089E+01  0.3304395208381302E+01  0.3344438013592300E+01  0.3384537993235139E+01  0.3424694987458749E+01
  0.3464908837213078E+01  0.3505179384243309E+01  0.3545506471084118E+01  0.3585889941053975E+01  0.3626329638249538E+01
  0.3666825407540049E+01  0.3707377094561826E+01  0.3747984545712783E+01  0.3788647608147000E+01  0.3829366129769348E+01
  0.3870139959230190E+01  0.3910968945920072E+01  0.3951852939964534E+01  0.3992791792218888E+01  0.4033785354263134E+01
  0.4074833478396862E+01  0.4115936017634195E+01  0.4157092825698828E+01  0.4198303757019068E+01  0.4239568666722946E+01
  0.4280887410633349E+01  0.4322259845263217E+01  0.4363685827810789E+01  0.4405165216154839E+01  0.4446697868850043E+01
  0.4488283645122309E+01  0.4529922404864186E+01  0.4571614008630317E+01  0.4613358317632895E+01  0.4655155193737227E+01
  0.4697004499457264E+01  0.4738906097951234E+01  0.4780859853017252E+01  0.4822865629089025E+01  0.4864923291231571E+01
  0.4907032705136948E+01  0.4949193737120092E+01  0.4991406254114599E+01  0.5033670123668644E+01  0.5075985213940842E+01
  0.5118351393696191E+01  0.5160768532302073E+01  0.5203236499724254E+01  0.5245755166522907E+01  0.5288324403848708E+01
  0.5330944083438951E+01  0.5373614077613678E+01  0.5416334259271872E+01  0.5459104501887661E+01  0.5501924679506550E+01
  0.5544794666741733E+01  0.5587714338770358E+01  0.5630683571329882E+01  0.5673702240714452E+01  0.5716770223771289E+01
  0.5759887397897132E+01  0.5803053641034683E+01  0.5846268831669122E+01  0.5889532848824597E+01  0.5932845572060797E+01
  0.5976206881469520E+01  0.6019616657671283E+01  0.6063074781811950E+01  0.6106581135559416E+01  0.6150135601100253E+01
  0.6193738061136491E+01  0.6237388398882314E+01  0.6281086498060850E+01  0.6324832242900968E+01  0.6368625518134093E+01
  0.6412466208991092E+01  0.6456354201199099E+01  0.6500289380978461E+01  0.6544271635039639E+01  0.6588300850580179E+01
  0.6632376915281683E+01  0.6676499717306794E+01  0.6720669145296251E+01  0.6764885088365914E+01  0.6809147436103869E+01
  0.6853456078567480E+01  0.6897810906280553E+01  0.6942211810230464E+01  0.6986658681865309E+01  0.7031151413091129E+01
  0.7075689896269083E+01  0.7120274024212707E+01  0.7164903690185175E+01  0.7209578787896548E+01  0.7254299211501108E+01
  0.7299064855594638E+01  0.7343875615211812E+01  0.7388731385823511E+01  0.7433632063334254E+01  0.7478577544079544E+01
  0.7523567724823352E+01  0.7568602502755513E+01  0.7613681775489222E+01  0.7658805441058500E+01  0.7703973397915712E+01
  0.7749185544929065E+01  0.7794441781380189E+01  0.7839742006961658E+01  0.7885086121774595E+01  0.7930474026326262E+01
  0.7975905621527670E+01  0.8021380808691237E+01  0.8066899489528412E+01  0.8112461566147374E+01  0.8158066941050683E+01
  0.8203715517133038E+01  0.8249407197678961E+01  0.8295141886360540E+01  0.8340919487235224E+01  0.8386739904743537E+01
  0.8432603043706942E+01  0.8478508809325593E+01  0.8524457107176175E+01  0.8570447843209765E+01  0.8616480923749668E+01
  0.8662556255489299E+01  0.8708673745490071E+01  0.8754833301179296E+01  0.8801034830348121E+01  0.8847278241149445E+01
  0.8893563442095875E+01  0.8939890342057703E+01  0.8986258850260892E+01  0.9032668876285047E+01  0.9079120330061452E+01
  0.9125613121871076E+01  0.9172147162342624E+01  0.9218722362450601E+01  0.9265338633513364E+01  0.9311995887191216E+01
  0.9358694035484497E+01  0.9405432990731688E+01  0.9452212665607552E+01  0.9499032973121277E+01  0.9545893826614593E+01
  0.9592795139759989E+01  0.9639736826558835E+01  0.9686718801339605E+01  0.9733740978756090E+01  0.9780803273785592E+01
  0.9827905601727172E+01  0.9875047878199876E+01  0.9922230019141006E+01  0.9969451940804369E+01  0.1001671355975859E+02
  0.1006401479288536E+02  0.1011135555737778E+02  0.1015873577073866E+02  0.1020615535077883E+02  0.1025361421561552E+02
  0.1030111228367068E+02  0.1034864947366935E+02  0.1039622570463805E+02  0.1044384089590314E+02  0.1049149496708924E+02
  0.1053918783811761E+02  0.1058691942920462E+02  0.1063468966086014E+02  0.1068249845388599E+02  0.1073034572937438E+02
  0.1077823140870641E+02  0.1082615541355052E+02  0.1087411766586096E+02  0.1092211808787631E+02  0.1097015660211799E+02
  0.1101823313138872E+02  0.1106634759877114E+02  0.1111449992762626E+02  0.1116269004159203E+02  0.1121091786458195E+02
  0.1125918332078354E+02  0.1130748633465697E+02  0.1135582683093368E+02  0.1140420473461491E+02  0.1145261997097030E+02
  0.1150107246553657E+02  0.1154956214411611E+02  0.1159808893277557E+02  0.1164665275784457E+02  0.1169525354591430E+02
  0.1174389122383620E+02  0.1179256571872065E+02  0.1184127695793558E+02  0.1189002486910525E+02  0.1193880938010886E+02
  0.1198763041907930E+02  0.1203648791440186E+02  0.1208538179471291E+02  0.1213431198889872E+02  0.1218327842609408E+02
  0.1223228103568114E+02  0.1228131974728811E+02  0.1233039449078804E+02  0.1237950519629762E+02  0.1242865179417591E+02
  0.1247783421502316E+02  0.1252705238967958E+02  0.1257630624922414E+02  0.1262559572497343E+02  0.1267492074848044E+02
  0.1272428125153336E+02  0.1277367716615446E+02  0.1282310842459893E+02  0.1287257495935367E+02  0.1292207670313624E+02
  0.1297161358889363E+02  0.1302118554980118E+02  0.1307079251926146E+02  0.1312043443090316E+02  0.1317011121857991E+02
  0.1321982281636931E+02  0.1326956915857169E+02  0.1331935017970916E+02  0.1336916581452442E+02  0.1341901599797977E+02
  0.1346890066525597E+02  0.1351881975175123E+02  0.1356877319308016E+02  0.1361876092507270E+02  0.1366878288377308E+02
  0.1371883900543882E+02  0.1376892922653966E+02  0.1381905348375656E+02  0.1386921171398071E+02  0.1391940385431248E+02
  0.1396962984206044E+02  0.1401988961474038E+02  0.1407018311007430E+02  0.1412051026598943E+02  0.1417087102061726E+02
  0.1422126531229257E+02  0.1427169307955247E+02  0.1432215426113544E+02  0.1437264879598036E+02  0.1442317662322558E+02
  0.1447373768220801E+02  0.1452433191246211E+02  0.1457495925371904E+02  0.1462561964590569E+02  0.1467631302914375E+02
  0.1472703934374887E+02  0.1477779853022967E+02  0.1482859052928689E+02  0.1487941528181250E+02  0.1493027272888875E+02
  0.1498116281178737E+02  0.1503208547196860E+02  0.1508304065108043E+02  0.1513402829095760E+02  0.1518504833362084E+02
  0.1523610072127597E+02  0.1528718539631305E+02  0.1533830230130553E+02  0.1538945137900942E+02  0.1544063257236245E+02
  0.1549184582448322E+02  0.1554309107867039E+02  0.1559436827840186E+02  0.1564567736733394E+02  0.1569701828930054E+02
  0.1574839098831236E+02  0.1579979540855612E+02  0.1585123149439370E+02  0.1590269919036140E+02  0.1595419844116912E+02
  0.1600572919169960E+02  0.1605729138700761E+02  0.1610888497231921E+02  0.1616050989303096E+02  0.1621216609470914E+02
  0.1626385352308903E+02  0.1631557212407411E+02  0.1636732184373533E+02  0.1641910262831037E+02  0.1647091442420286E+02
  0.1652275717798168E+02  0.1657463083638021E+02  0.1662653534629560E+02  0.1667847065478804E+02  0.1673043670908003E+02
  0.1678243345655569E+02  0.1683446084476001E+02  0.1688651882139817E+02  0.1693860733433483E+02  0.1699072633159340E+02
  0.1704287576135537E+02  0.1709505557195961E+02  0.1714726571190169E+02  0.1719950612983317E+02  0.1725177677456094E+02
  0.1730407759504652E+02  0.1735640854040543E+02  0.1740876955990645E+02  0.1746116060297103E+02  0.1751358161917257E+02
  0.1756603255823578E+02  0.1761851337003603E+02  0.1767102400459873E+02  0.1772356441209858E+02  0.1777613454285904E+02
  0.1782873434735164E+02  0.1788136377619533E+02  0.1793402278015589E+02  0.1798671131014522E+02  0.1803942931722084E+02
  0.1809217675258514E+02  0.1814495356758483E+02  0.1819775971371032E+02  0.1825059514259508E+02  0.1830345980601506E+02
  0.1835635365588807E+02  0.1840927664427318E+02  0.1846222872337012E+02  0.1851520984551869E+02  0.1856821996319817E+02
  0.1862125902902670E+02  0.1867432699576074E+02  0.1872742381629449E+02  0.1878054944365924E+02  0.1883370383102286E+02
  0.1888688693168923E+02  0.1894009869909761E+02  0.1899333908682216E+02  0.1904660804857129E+02  0.1909990553818714E+02
  0.1915323150964506E+02  0.1920658591705297E+02  0.1925996871465088E+02  0.1931337985681033E+02  0.1936681929803380E+02
  0.1942028699295421E+02  0.1947378289633438E+02  0.1952730696306648E+02  0.1958085914817149E+02  0.1963443940679869E+02
  0.1968804769422511E+02  0.1974168396585504E+02  0.1979534817721944E+02  0.1984904028397552E+02  0.1990276024190612E+02
  0.1995650800691926E+02  0.2001028353504762E+02  0.2006408678244802E+02  0.2011791770540090E+02  0.2017177626030987E+02
  0.2022566240370115E+02  0.2027957609222308E+02  0.2033351728264570E+02  0.2038748593186015E+02  0.2044148199687823E+02
  0.2049550543483194E+02  0.2054955620297296E+02  0.2060363425867215E+02  0.2065773955941912E+02  0.2071187206282174E+02
  0.2076603172660563E+02  0.2082021850861372E+02  0.2087443236680577E+02  0.2092867325925791E+02  0.2098294114416217E+02
  0.2103723597982601E+02  0.2109155772467190E+02  0.2114590633723680E+02  0.2120028177617174E+02  0.2125468400024137E+02
  0.2130911296832350E+02  0.2136356863940865E+02  0.2141805097259963E+02  0.2147255992711106E+02  0.2152709546226894E+02
  0.2158165753751023E+02  0.2163624611238237E+02  0.2169086114654291E+02  0.2174550259975904E+02  0.2180017043190712E+02
  0.2185486460297237E+02  0.2190958507304830E+02  0.2196433180233638E+02  0.2201910475114560E+02  0.2207390387989206E+02
  0.2212872914909851E+02  0.2218358051939399E+02  0.2223845795151336E+02  0.2229336140629695E+02  0.2234829084469011E+02
  0.2240324622774282E+02  0.2245822751660929E+02  0.2251323467254753E+02  0.2256826765691899E+02  0.2262332643118812E+02
  0.2267841095692201E+02  0.2273352119578998E+02  0.2278865710956319E+02  0.2284381866011422E+02  0.2289900580941676E+02
  0.2295421851954512E+02  0.2300945675267393E+02  0.2306472047107773E+02  0.2312000963713056E+02  0.2317532421330564E+02
  0.2323066416217490E+02  0.2328602944640875E+02  0.2334142002877554E+02  0.2339683587214133E+02  0.2345227693946944E+02
  0.2350774319382006E+02  0.2356323459835001E+02  0.2361875111631223E+02  0.2367429271105549E+02  0.2372985934602405E+02
  0.2378545098475724E+02  0.2384106759088915E+02  0.2389670912814825E+02  0.2395237556035706E+02  0.2400806685143178E+02
  0.2406378296538193E+02  0.2411952386631003E+02  0.2417528951841124E+02  0.2423107988597302E+02  0.2428689493337475E+02
  0.2434273462508746E+02  0.2439859892567343E+02  0.2445448779978587E+02  0.2451040121216860E+02  0.2456633912765568E+02
  0.2462230151117110E+02  0.2467828832772849E+02  0.2473429954243064E+02  0.2479033512046943E+02  0.2484639502712519E+02
  0.2490247922776665E+02  0.2495858768785044E+02  0.2501472037292085E+02  0.2507087724860948E+02  0.2512705828063494E+02
  0.2518326343480252E+02  0.2523949267700383E+02  0.2529574597321660E+02  0.2535202328950425E+02  0.2540832459201563E+02
  0.2546464984698472E+02  0.2552099902073032E+02  0.2557737207965565E+02  0.2563376899024822E+02  0.2569018971907939E+02
  0.2574663423280407E+02  0.2580310249816052E+02  0.2585959448196994E+02  0.2591611015113621E+02  0.2597264947264562E+02
  0.2602921241356657E+02  0.2608579894104921E+02  0.2614240902232522E+02  0.2619904262470750E+02  0.2625569971558986E+02
  0.2631238026244673E+02  0.2636908423283295E+02  0.2642581159438331E+02  0.2648256231481250E+02  0.2653933636191460E+02
  0.2659613370356297E+02  0.2665295430770982E+02  0.2670979814238608E+02  0.2676666517570103E+02  0.2682355537584203E+02
  0.2688046871107426E+02  0.2693740514974045E+02  0.2699436466026059E+02  0.2705134721113166E+02  0.2710835277092739E+02
  0.2716538130829793E+02  0.2722243279196968E+02  0.2727950719074490E+02  0.2733660447350152E+02  0.2739372460919289E+02
  0.2745086756684742E+02  0.2750803331556849E+02  0.2756522182453398E+02  0.2762243306299616E+02  0.2767966700028140E+02
  0.2773692360578987E+02  0.2779420284899532E+02  0.2785150469944483E+02  0.2790882912675852E+02  0.2796617610062934E+02
  0.2802354559082277E+02  0.2808093756717662E+02  0.2813835199960078E+02  0.2819578885807687E+02  0.2825324811265819E+02
  0.2831072973346925E+02  0.2836823369070568E+02  0.2842575995463393E+02  0.2848330849559105E+02  0.2854087928398439E+02
  0.2859847229029145E+02  0.2865608748505958E+02  0.2871372483890570E+02  0.2877138432251623E+02  0.2882906590664664E+02
  0.2888676956212135E+02  0.2894449525983346E+02  0.2900224297074453E+02  0.2906001266588433E+02  0.2911780431635059E+02
  0.2917561789330883E+02  0.2923345336799207E+02  0.2929131071170064E+02  0.2934918989580195E+02  0.2940709089173021E+02
  0.2946501367098629E+02  0.2952295820513747E+02  0.2958092446581716E+02  0.2963891242472474E+02  0.2969692205362529E+02
  0.2975495332434947E+02  0.2981300620879314E+02  0.2987108067891729E+02  0.2992917670674778E+02  0.2998729426437501E+02
  0.3004543332395391E+02  0.3010359385770357E+02  0.3016177583790707E+02  0.3021997923691126E+02  0.3027820402712661E+02
  0.3033645018102689E+02  0.3039471767114908E+02  0.3045300647009303E+02  0.3051131655052139E+02  0.3056964788515927E+02
  0.3062800044679415E+02  0.3068637420827562E+02  0.3074476914251512E+02  0.3080318522248588E+02  0.3086162242122255E+02
  0.3092008071182115E+02  0.3097856006743876E+02  0.3103706046129338E+02  0.3109558186666367E+02  0.3115412425688886E+02
  0.3121268760536840E+02  0.3127127188556195E+02  0.3132987707098898E+02  0.3138850313522872E+02  0.3144715005191994E+02
  0.3150581779476070E+02  0.3156450633750827E+02  0.3162321565397874E+02  0.3168194571804707E+02  0.3174069650364672E+02
  0.3179946798476956E+02  0.3185826013546561E+02  0.3191707292984291E+02  0.3197590634206731E+02  0.3203476034636228E+02
  0.3209363491700874E+02  0.3215253002834483E+02  0.3221144565476581E+02  0.3227038177072379E+02  0.3232933835072762E+02
  0.3238831536934260E+02  0.3244731280119050E+02  0.3250633062094911E+02  0.3256536880335233E+02  0.3262442732318975E+02
  0.3268350615530672E+02  0.3274260527460390E+02  0.3280172465603730E+02  0.3286086427461806E+02  0.3292002410541217E+02
  0.3297920412354042E+02  0.3303840430417816E+02  0.3309762462255512E+02  0.3315686505395530E+02  0.3321612557371677E+02
  0.3327540615723142E+02  0.3333470677994497E+02  0.3339402741735655E+02  0.3345336804501881E+02  0.3351272863853756E+02
  0.3357210917357160E+02  0.3363150962583271E+02  0.3369092997108531E+02  0.3375037018514643E+02  0.3380983024388544E+02
  0.3386931012322396E+02  0.3392880979913566E+02  0.3398832924764611E+02  0.3404786844483260E+02  0.3410742736682401E+02
  0.3416700598980066E+02  0.3422660428999407E+02  0.3428622224368691E+02  0.3434585982721275E+02  0.3440551701695594E+02
  0.3446519378935147E+02  0.3452489012088481E+02  0.3458460598809168E+02  0.3464434136755803E+02  0.3470409623591974E+02
  0.3476387056986263E+02  0.3482366434612207E+02  0.3488347754148313E+02  0.3494331013278018E+02  0.3500316209689677E+02
  0.3506303341076569E+02  0.3512292405136853E+02  0.3518283399573574E+02  0.3524276322094637E+02  0.3530271170412797E+02
  0.3536267942245643E+02  0.3542266635315585E+02  0.3548267247349833E+02  0.3554269776080390E+02  0.3560274219244037E+02
  0.3566280574582311E+02  0.3572288839841499E+02  0.3578299012772616E+02  0.3584311091131401E+02  0.3590325072678289E+02
  0.3596340955178414E+02  0.3602358736401573E+02  0.3608378414122235E+02  0.3614399986119510E+02  0.3620423450177143E+02
  0.3626448804083495E+02  0.3632476045631537E+02  0.3638505172618828E+02  0.3644536182847505E+02  0.3650569074124272E+02
  0.3656603844260376E+02  0.3662640491071610E+02  0.3668679012378279E+02  0.3674719406005209E+02  0.3680761669781713E+02
  0.3686805801541593E+02  0.3692851799123114E+02  0.3698899660369005E+02  0.3704949383126429E+02  0.3711000965246986E+02
  0.3717054404586688E+02  0.3723109699005948E+02  0.3729166846369579E+02  0.3735225844546760E+02  0.3741286691411043E+02
  0.3747349384840326E+02  0.3753413922716847E+02  0.3759480302927170E+02  0.3765548523362175E+02  0.3771618581917038E+02
  0.3777690476491226E+02  0.3783764204988478E+02  0.3789839765316796E+02  0.3795917155388437E+02  0.3801996373119889E+02
  0.3808077416431869E+02  0.3814160283249307E+02  0.3820244971501333E+02  0.3826331479121264E+02  0.3832419804046597E+02
  0.3838509944218985E+02  0.3844601897584243E+02  0.3850695662092320E+02  0.3856791235697288E+02  0.3862888616357348E+02
  0.3868987802034790E+02  0.3875088790696010E+02  0.3881191580311471E+02  0.3887296168855711E+02  0.3893402554307328E+02
  0.3899510734648955E+02  0.3905620707867266E+02  0.3911732471952955E+02  0.3917846024900724E+02  0.3923961364709277E+02
  0.3930078489381295E+02  0.3936197396923447E+02  0.3942318085346360E+02  0.3948440552664612E+02  0.3954564796896729E+02
  0.3960690816065158E+02  0.3966818608196273E+02  0.3972948171320346E+02  0.3979079503471559E+02  0.3985212602687963E+02
  0.3991347467011501E+02  0.3997484094487967E+02  0.4003622483167005E+02  0.4009762631102112E+02  0.4015904536350607E+02
  0.4022048196973630E+02  0.4028193611036129E+02  0.4034340776606854E+02  0.4040489691758338E+02  0.4046640354566892E+02
  0.4052792763112589E+02  0.4058946915479263E+02  0.4065102809754492E+02  0.4071260444029586E+02  0.4077419816399576E+02
  0.4083580924963209E+02  0.4089743767822934E+02  0.4095908343084893E+02  0.4102074648858909E+02  0.4108242683258477E+02
  0.4114412444400751E+02  0.4120583930406537E+02  0.4126757139400288E+02  0.4132932069510078E+02  0.4139108718867607E+02
  0.4145287085608180E+02  0.4151467167870712E+02  0.4157648963797700E+02  0.4163832471535221E+02  0.4170017689232930E+02
  0.4176204615044036E+02  0.4182393247125299E+02  0.4188583583637020E+02  0.4194775622743034E+02  0.4200969362610694E+02
  0.4207164801410865E+02  0.4213361937317915E+02  0.4219560768509701E+02  0.4225761293167567E+02  0.4231963509476324E+02
  0.4238167415624250E+02  0.4244373009803079E+02  0.4250580290207986E+02  0.4256789255037578E+02  0.4262999902493893E+02
  0.4269212230782381E+02  0.4275426238111903E+02  0.4281641922694707E+02  0.4287859282746445E+02  0.4294078316486135E+02
  0.4300299022136168E+02  0.4306521397922295E+02  0.4312745442073622E+02  0.4318971152822593E+02  0.4325198528404985E+02
  0.4331427567059897E+02  0.4337658267029752E+02  0.4343890626560268E+02  0.4350124643900464E+02  0.4356360317302649E+02
  0.4362597645022410E+02  0.4368836625318599E+02  0.4375077256453339E+02  0.4381319536692000E+02  0.4387563464303192E+02
  0.4393809037558764E+02  0.4400056254733799E+02  0.4406305114106582E+02  0.4412555613958619E+02  0.4418807752574607E+02
  0.4425061528242450E+02  0.4431316939253215E+02  0.4437573983901158E+02  0.4443832660483698E+02  0.4450092967301408E+02
  0.4456354902658018E+02  0.4462618464860385E+02  0.4468883652218516E+02  0.4475150463045526E+02  0.4481418895657658E+02
  0.4487688948374257E+02  0.4493960619517764E+02  0.4500233907413715E+02  0.4506508810390731E+02  0.4512785326780505E+02
  0.4519063454917792E+02  0.4525343193140414E+02  0.4531624539789236E+02  0.4537907493208168E+02  0.4544192051744152E+02
  0.4550478213747161E+02  0.4556765977570183E+02  0.4563055341569214E+02  0.4569346304103255E+02  0.4575638863534299E+02
  0.4581933018227328E+02  0.4588228766550304E+02  0.4594526106874152E+02  0.4600825037572767E+02  0.4607125557022999E+02
  0.4613427663604642E+02  0.4619731355700430E+02  0.4626036631696032E+02  0.4632343489980040E+02  0.4638651928943960E+02
  0.4644961946982215E+02  0.4651273542492114E+02  0.4657586713873879E+02  0.4663901459530606E+02  0.4670217777868272E+02
  0.4676535667295728E+02  0.4682855126224687E+02  0.4689176153069720E+02  0.4695498746248247E+02  0.4701822904180528E+02
  0.4708148625289657E+02  0.4714475908001558E+02  0.4720804750744973E+02  0.4727135151951457E+02  0.4733467110055369E+02
  0.4739800623493870E+02  0.4746135690706905E+02  0.4752472310137206E+02  0.4758810480230286E+02  0.4765150199434418E+02
  0.4771491466200647E+02  0.4777834278982765E+02  0.4784178636237317E+02  0.4790524536423587E+02  0.4796871978003594E+02
  0.4803220959442081E+02  0.4809571479206516E+02  0.4815923535767075E+02  0.4822277127596646E+02  0.4828632253170807E+02
  0.4834988910967841E+02  0.4841347099468705E+02  0.4847706817157040E+02  0.4854068062519160E+02  0.4860430834044039E+02
  0.4866795130223316E+02  0.4873160949551277E+02  0.4879528290524854E+02  0.4885897151643616E+02  0.4892267531409770E+02
  0.4898639428328134E+02  0.4905012840906156E+02  0.4911387767653897E+02  0.4917764207084012E+02  0.4924142157711763E+02
  0.4930521618055003E+02  0.4936902586634168E+02  0.4943285061972272E+02  0.4949669042594906E+02  0.4956054527030223E+02
  0.4962441513808936E+02  0.4968830001464315E+02  0.4975219988532167E+02  0.4981611473550853E+02  0.4988004455061254E+02
  0.4994398931606793E+02  0.5000794901733398E+02  0.5007192363989527E+02  0.5013591316926137E+02  0.5019991759096695E+02
  0.5026393689057155E+02  0.5032797105365970E+02  0.5039202006584071E+02  0.5045608391274870E+02  0.5052016258004251E+02
  0.5058425605340556E+02  0.5064836431854597E+02  0.5071248736119635E+02  0.5077662516711376E+02  0.5084077772207966E+02
  0.5090494501189992E+02  0.5096912702240466E+02  0.5103332373944823E+02  0.5109753514890915E+02  0.5116176123669009E+02
  0.5122600198871774E+02  0.5129025739094274E+02  0.5135452742933978E+02  0.5141881208990726E+02  0.5148311135866761E+02
  0.5154742522166679E+02  0.5161175366497466E+02  0.5167609667468453E+02  0.5174045423691350E+02  0.5180482633780202E+02
  0.5186921296351412E+02  0.5193361410023719E+02  0.5199802973418197E+02  0.5206245985158257E+02  0.5212690443869621E+02
  0.5219136348180342E+02  0.5225583696720781E+02  0.5232032488123605E+02  0.5238482721023779E+02  0.5244934394058579E+02
  0.5251387505867553E+02  0.5257842055092544E+02  0.5264298040377673E+02  0.5270755460369332E+02  0.5277214313716190E+02
  0.5283674599069165E+02  0.5290136315081442E+02  0.5296599460408458E+02  0.5303064033707888E+02  0.5309530033639663E+02
  0.5315997458865937E+02  0.5322466308051097E+02  0.5328936579861758E+02  0.5335408272966752E+02  0.5341881386037132E+02
  0.5348355917746145E+02  0.5354831866769258E+02  0.5361309231784128E+02  0.5367788011470605E+02  0.5374268204510730E+02
  0.5380749809588728E+02  0.5387232825390995E+02  0.5393717250606105E+02  0.5400203083924796E+02  0.5406690324039974E+02
  0.5413178969646690E+02  0.5419669019442160E+02  0.5426160472125737E+02  0.5432653326398922E+02  0.5439147580965346E+02
  0.5445643234530777E+02  0.5452140285803105E+02  0.5458638733492347E+02  0.5465138576310628E+02  0.5471639812972192E+02
  0.5478142442193380E+02  0.5484646462692651E+02  0.5491151873190541E+02  0.5497658672409690E+02  0.5504166859074817E+02
  0.5510676431912728E+02  0.5517187389652302E+02  0.5523699731024490E+02  0.5530213454762320E+02  0.5536728559600861E+02
  0.5543245044277260E+02  0.5549762907530704E+02  0.5556282148102431E+02  0.5562802764735721E+02  0.5569324756175897E+02
  0.5575848121170311E+02  0.5582372858468340E+02  0.5588898966821390E+02  0.5595426444982887E+02  0.5601955291708267E+02
  0.5608485505754975E+02  0.5615017085882468E+02  0.5621550030852197E+02  0.5628084339427607E+02  0.5634620010374144E+02
  0.5641157042459229E+02  0.5647695434452269E+02  0.5654235185124654E+02  0.5660776293249737E+02  0.5667318757602840E+02
  0.5673862576961261E+02  0.5680407750104241E+02  0.5686954275812987E+02  0.5693502152870644E+02  0.5700051380062319E+02
  0.5706601956175042E+02  0.5713153879997794E+02  0.5719707150321479E+02  0.5726261765938932E+02  0.5732817725644912E+02
  0.5739375028236095E+02  0.5745933672511074E+02  0.5752493657270345E+02  0.5759054981316320E+02  0.5765617643453302E+02
  0.5772181642487497E+02  0.5778746977227002E+02  0.5785313646481804E+02  0.5791881649063770E+02  0.5798450983786648E+02
  0.5805021649466063E+02  0.5811593644919510E+02  0.5818166968966352E+02  0.5824741620427814E+02  0.5831317598126974E+02
  0.5837894900888772E+02  0.5844473527539992E+02  0.5851053476909268E+02  0.5857634747827075E+02  0.5864217339125720E+02
  0.5870801249639353E+02  0.5877386478203939E+02  0.5883973023657283E+02  0.5890560884838998E+02  0.5897150060590526E+02
  0.5903740549755108E+02  0.5910332351177806E+02  0.5916925463705473E+02  0.5923519886186777E+02  0.5930115617472174E+02
  0.5936712656413909E+02  0.5943311001866024E+02  0.5949910652684339E+02  0.5956511607726455E+02  0.5963113865851752E+02
  0.5969717425921380E+02  0.5976322286798257E+02  0.5982928447347064E+02  0.5989535906434246E+02  0.5996144662928004E+02
  0.6002754715698288E+02  0.6009366063616795E+02  0.6015978705556979E+02  0.6022592640394014E+02  0.6029207867004835E+02
  0.6035824384268088E+02  0.6042442191064166E+02  0.6049061286275175E+02  0.6055681668784945E+02  0.6062303337479033E+02
  0.6068926291244692E+02  0.6075550528970905E+02  0.6082176049548347E+02  0.6088802851869400E+02  0.6095430934828149E+02
  0.6102060297320365E+02  0.6108690938243519E+02  0.6115322856496765E+02  0.6121956050980940E+02  0.6128590520598565E+02
  0.6135226264253835E+02  0.6141863280852613E+02  0.6148501569302444E+02  0.6155141128512523E+02  0.6161781957393719E+02
  0.6168424054858546E+02  0.6175067419821190E+02  0.6181712051197475E+02  0.6188357947904871E+02  0.6195005108862500E+02
  0.6201653532991119E+02  0.6208303219213121E+02  0.6214954166452531E+02  0.6221606373635009E+02  0.6228259839687835E+02
  0.6234914563539915E+02  0.6241570544121766E+02  0.6248227780365532E+02  0.6254886271204959E+02  0.6261546015575404E+02
  0.6268207012413827E+02  0.6274869260658794E+02  0.6281532759250464E+02  0.6288197507130594E+02  0.6294863503242524E+02
  0.6301530746531192E+02  0.6308199235943108E+02  0.6314868970426376E+02  0.6321539948930663E+02  0.6328212170407220E+02
  0.6334885633808863E+02  0.6341560338089976E+02  0.6348236282206507E+02  0.6354913465115960E+02  0.6361591885777404E+02
  0.6368271543151454E+02  0.6374952436200277E+02  0.6381634563887587E+02  0.6388317925178643E+02  0.6395002519040239E+02
  0.6401688344440711E+02  0.6408375400349927E+02  0.6415063685739281E+02  0.6421753199581704E+02  0.6428443940851638E+02
  0.6435135908525052E+02  0.6441829101579434E+02  0.6448523518993782E+02  0.6455219159748604E+02  0.6461916022825922E+02
  0.6468614107209251E+02  0.6475313411883614E+02  0.6482013935835538E+02  0.6488715678053030E+02  0.6495418637525600E+02
  0.6502122813244242E+02  0.6508828204201434E+02  0.6515534809391137E+02  0.6522242627808795E+02  0.6528951658451317E+02
  0.6535661900317099E+02  0.6542373352405997E+02  0.6549086013719329E+02  0.6555799883259890E+02  0.6562514960031922E+02
  0.6569231243041138E+02  0.6575948731294687E+02  0.6582667423801182E+02  0.6589387319570680E+02  0.6596108417614685E+02
  0.6602830716946140E+02  0.6609554216579427E+02  0.6616278915530367E+02  0.6623004812816207E+02  0.6629731907455630E+02
  0.6636460198468741E+02  0.6643189684877078E+02  0.6649920365703588E+02  0.6656652239972641E+02  0.6663385306710020E+02
  0.6670119564942928E+02  0.6676855013699965E+02  0.6683591652011144E+02  0.6690329478907879E+02  0.6697068493422984E+02
  0.6703808694590674E+02  0.6710550081446547E+02  0.6717292653027610E+02  0.6724036408372241E+02  0.6730781346520220E+02
  0.6737527466512694E+02  0.6744274767392196E+02  0.6751023248202644E+02  0.6757772907989319E+02  0.6764523745798877E+02
  0.6771275760679343E+02  0.6778028951680110E+02  0.6784783317851928E+02  0.6791538858246918E+02  0.6798295571918538E+02
  0.6805053457921623E+02  0.6811812515312346E+02  0.6818572743148232E+02  0.6825334140488154E+02  0.6832096706392331E+02
  0.6838860439922304E+02  0.6845625340140978E+02  0.6852391406112578E+02  0.6859158636902666E+02  0.6865927031578128E+02
  0.6872696589207180E+02  0.6879467308859370E+02  0.6886239189605547E+02  0.6893012230517905E+02  0.6899786430669933E+02
  0.6906561789136444E+02  0.6913338304993556E+02  0.6920115977318700E+02  0.6926894805190605E+02  0.6933674787689313E+02
  0.6940455923896157E+02  0.6947238212893770E+02  0.6954021653766080E+02  0.6960806245598310E+02  0.6967591987476966E+02
  0.6974378878489850E+02  0.6981166917726034E+02  0.6987956104275885E+02  0.6994746437231045E+02  0.7001537915684430E+02
  0.7008330538730233E+02  0.7015124305463912E+02  0.7021919214982201E+02  0.7028715266383099E+02  0.7035512458765862E+02
  0.7042310791231013E+02  0.7049110262880333E+02  0.7055910872816860E+02  0.7062712620144879E+02  0.7069515503969934E+02
  0.7076319523398807E+02  0.7083124677539543E+02  0.7089930965501411E+02  0.7096738386394931E+02  0.7103546939331864E+02
  0.7110356623425194E+02  0.7117167437789156E+02  0.7123979381539203E+02  0.7130792453792017E+02  0.7137606653665513E+02
  0.7144421980278825E+02  0.7151238432752309E+02  0.7158056010207542E+02  0.7164874711767307E+02  0.7171694536555614E+02
  0.7178515483697682E+02  0.7185337552319926E+02  0.7192160741549984E+02  0.7198985050516691E+02  0.7205810478350084E+02
  0.7212637024181394E+02  0.7219464687143063E+02  0.7226293466368712E+02  0.7233123360993167E+02  0.7239954370152432E+02
  0.7246786492983711E+02  0.7253619728625381E+02  0.7260454076217010E+02  0.7267289534899349E+02  0.7274126103814309E+02
  0.7280963782105002E+02  0.7287802568915697E+02  0.7294642463391840E+02  0.7301483464680042E+02  0.7308325571928083E+02
  0.7315168784284910E+02  0.7322013100900628E+02  0.7328858520926502E+02  0.7335705043514957E+02  0.7342552667819572E+02
  0.7349401392995077E+02  0.7356251218197352E+02  0.7363102142583428E+02  0.7369954165311481E+02  0.7376807285540836E+02
  0.7383661502431949E+02  0.7390516815146424E+02  0.7397373222846997E+02  0.7404230724697544E+02  0.7411089319863071E+02
  0.7417949007509711E+02  0.7424809786804732E+02  0.7431671656916527E+02  0.7438534617014599E+02  0.7445398666269598E+02
  0.7452263803853278E+02  0.7459130028938505E+02  0.7465997340699271E+02  0.7472865738310679E+02  0.7479735220948940E+02
  0.7486605787791376E+02  0.7493477438016414E+02  0.7500350170803587E+02  0.7507223985333532E+02  0.7514098880787971E+02
  0.7520974856349753E+02  0.7527851911202792E+02  0.7534730044532120E+02  0.7541609255523845E+02  0.7548489543365174E+02
  0.7555370907244395E+02  0.7562253346350890E+02  0.7569136859875110E+02  0.7576021447008597E+02  0.7582907106943973E+02
  0.7589793838874935E+02  0.7596681641996256E+02  0.7603570515503772E+02  0.7610460458594409E+02  0.7617351470466141E+02
  0.7624243550318029E+02  0.7631136697350182E+02  0.7638030910763780E+02  0.7644926189761061E+02  0.7651822533545322E+02
  0.7658719941320918E+02  0.7665618412293256E+02  0.7672517945668795E+02  0.7679418540655050E+02  0.7686320196460584E+02
  0.7693222912294991E+02  0.7700126687368935E+02  0.7707031520894101E+02  0.7713937412083230E+02  0.7720844360150089E+02
  0.7727752364309487E+02  0.7734661423777273E+02  0.7741571537770318E+02  0.7748482705506527E+02  0.7755394926204848E+02
  0.7762308199085230E+02  0.7769222523368670E+02  0.7776137898277172E+02  0.7783054323033768E+02  0.7789971796862515E+02
  0.7796890318988473E+02  0.7803809888637731E+02  0.7810730505037380E+02  0.7817652167415527E+02  0.7824574875001295E+02
  0.7831498627024806E+02  0.7838423422717186E+02  0.7845349261310571E+02  0.7852276142038099E+02  0.7859204064133904E+02
  0.7866133026833123E+02  0.7873063029371883E+02  0.7879994070987307E+02  0.7886926150917517E+02  0.7893859268401619E+02
  0.7900793422679709E+02  0.7907728612992868E+02  0.7914664838583167E+02  0.7921602098693664E+02  0.7928540392568381E+02
  0.7935479719452339E+02  0.7942420078591526E+02  0.7949361469232909E+02  0.7956303890624429E+02  0.7963247342014998E+02
  0.7970191822654500E+02  0.7977137331793787E+02  0.7984083868684682E+02  0.7991031432579966E+02  0.7997980022733388E+02
  0.8004929638399653E+02  0.8011880278834434E+02  0.8018831943294359E+02  0.8025784631037006E+02  0.8032738341320916E+02
  0.8039693073405580E+02  0.8046648826551433E+02  0.8053605600019868E+02  0.8060563393073231E+02  0.8067522204974787E+02
  0.8074482034988780E+02  0.8081442882380367E+02  0.8088404746415664E+02  0.8095367626361720E+02  0.8102331521486514E+02
  0.8109296431058966E+02  0.8116262354348937E+02  0.8123229290627205E+02  0.8130197239165489E+02  0.8137166199236431E+02
  0.8144136170113605E+02  0.8151107151071498E+02  0.8158079141385534E+02  0.8165052140332057E+02  0.8172026147188318E+02
  0.8179001161232499E+02  0.8185977181743694E+02  0.8192954208001912E+02  0.8199932239288080E+02  0.8206911274884025E+02
  0.8213891314072498E+02  0.8220872356137143E+02  0.8227854400362526E+02  0.8234837446034102E+02  0.8241821492438241E+02
  0.8248806538862215E+02  0.8255792584594188E+02  0.8262779628923226E+02  0.8269767671139290E+02  0.8276756710533242E+02
  0.8283746746396831E+02  0.8290737778022701E+02  0.8297729804704379E+02  0.8304722825736295E+02  0.8311716840413753E+02
  0.8318711848032949E+02  0.8325707847890958E+02  0.8332704839285742E+02  0.8339702821516138E+02  0.8346701793881867E+02
  0.8353701755683525E+02  0.8360702706222584E+02  0.8367704644801394E+02  0.8374707570723166E+02  0.8381711483292000E+02
  0.8388716381812843E+02  0.8395722265591536E+02  0.8402729133934764E+02  0.8409736986150087E+02  0.8416745821545928E+02
  0.8423755639431569E+02  0.8430766439117154E+02  0.8437778219913683E+02  0.8444790981133022E+02  0.8451804722087878E+02
  0.8458819442091823E+02  0.8465835140459278E+02  0.8472851816505515E+02  0.8479869469546657E+02  0.8486888098899666E+02
  0.8493907703882365E+02  0.8500928283813413E+02  0.8507949838012317E+02  0.8514972365799413E+02  0.8521995866495899E+02
  0.8529020339423792E+02  0.8536045783905961E+02  0.8543072199266089E+02  0.8550099584828730E+02  0.8557127939919233E+02
  0.8564157263863804E+02  0.8571187555989465E+02  0.8578218815624075E+02  0.8585251042096313E+02  0.8592284234735692E+02
  0.8599318392872536E+02  0.8606353515838006E+02  0.8613389602964078E+02  0.8620426653583543E+02  0.8627464667030019E+02
  0.8634503642637934E+02  0.8641543579742530E+02  0.8648584477679879E+02  0.8655626335786846E+02  0.8662669153401112E+02
  0.8669712929861171E+02  0.8676757664506333E+02  0.8683803356676694E+02  0.8690850005713175E+02  0.8697897610957493E+02
  0.8704946171752164E+02  0.8711995687440512E+02  0.8719046157366660E+02  0.8726097580875523E+02  0.8733149957312820E+02
  0.8740203286025064E+02  0.8747257566359556E+02  0.8754312797664402E+02  0.8761368979288486E+02  0.8768426110581487E+02
  0.8775484190893876E+02  0.8782543219576912E+02  0.8789603195982639E+02  0.8796664119463868E+02  0.8803725989374222E+02
  0.8810788805068091E+02  0.8817852565900643E+02  0.8824917271227828E+02  0.8831982920406375E+02  0.8839049512793792E+02
  0.8846117047748352E+02  0.8853185524629114E+02  0.8860254942795899E+02  0.8867325301609306E+02  0.8874396600430700E+02
  0.8881468838622217E+02  0.8888542015546750E+02  0.8895616130567976E+02  0.8902691183050322E+02  0.8909767172358983E+02
  0.8916844097859908E+02  0.8923921958919823E+02  0.8931000754906198E+02  0.8938080485187264E+02  0.8945161149132014E+02
  0.8952242746110188E+02  0.8959325275492287E+02  0.8966408736649564E+02  0.8973493128954013E+02  0.8980578451778391E+02
  0.8987664704496198E+02  0.8994751886481680E+02  0.9001839997109832E+02  0.9008929035756390E+02  0.9016019001797834E+02
  0.9023109894611397E+02  0.9030201713575033E+02  0.9037294458067457E+02  0.9044388127468100E+02  0.9051482721157156E+02
  0.9058578238515531E+02  0.9065674678924877E+02  0.9072772041767578E+02  0.9079870326426757E+02  0.9086969532286257E+02
  0.9094069658730650E+02  0.9101170705145245E+02  0.9108272670916074E+02  0.9115375555429894E+02  0.9122479358074192E+02
  0.9129584078237168E+02  0.9136689715307753E+02  0.9143796268675595E+02  0.9150903737731066E+02  0.9158012121865255E+02
  0.9165121420469954E+02  0.9172231632937702E+02  0.9179342758661726E+02  0.9186454797035975E+02  0.9193567747455110E+02
  0.9200681609314505E+02  0.9207796382010240E+02  0.9214912064939119E+02  0.9222028657498635E+02  0.9229146159086984E+02
  0.9236264569103092E+02  0.9243383886946570E+02  0.9250504112017732E+02  0.9257625243717597E+02  0.9264747281447895E+02
  0.9271870224611040E+02  0.9278994072610151E+02  0.9286118824849034E+02  0.9293244480732214E+02  0.9300371039664887E+02
  0.9307498501052959E+02  0.9314626864303015E+02  0.9321756128822338E+02  0.9328886294018902E+02  0.9336017359301370E+02
  0.9343149324079089E+02  0.9350282187762096E+02  0.9357415949761098E+02  0.9364550609487519E+02  0.9371686166353437E+02
  0.9378822619771624E+02  0.9385959969155532E+02  0.9393098213919291E+02  0.9400237353477705E+02  0.9407377387246265E+02
  0.9414518314641133E+02  0.9421660135079146E+02  0.9428802847977816E+02  0.9435946452755331E+02  0.9443090948830539E+02
  0.9450236335622972E+02  0.9457382612552829E+02  0.9464529779040971E+02  0.9471677834508934E+02  0.9478826778378911E+02
  0.9485976610073770E+02  0.9493127329017040E+02  0.9500278934632907E+02  0.9507431426346223E+02  0.9514584803582507E+02
  0.9521739065767927E+02  0.9528894212329318E+02  0.9536050242694164E+02  0.9543207156290610E+02  0.9550364952547463E+02
  0.9557523630894168E+02  0.9564683190760839E+02  0.9571843631578233E+02  0.9579004952777764E+02  0.9586167153791489E+02
  0.9593330234052119E+02  0.9600494192993013E+02  0.9607659030048167E+02  0.9614824744652243E+02  0.9621991336240522E+02
  0.9629158804248949E+02  0.9636327148114097E+02  0.9643496367273201E+02  0.9650666461164110E+02  0.9657837429225329E+02
  0.9665009270895996E+02  0.9672181985615889E+02  0.9679355572825419E+02  0.9686530031965637E+02  0.9693705362478225E+02
  0.9700881563805487E+02  0.9708058635390384E+02  0.9715236576676487E+02  0.9722415387108005E+02  0.9729595066129772E+02
  0.9736775613187258E+02  0.9743957027726553E+02  0.9751139309194369E+02  0.9758322457038048E+02  0.9765506470705567E+02
  0.9772691349645508E+02  0.9779877093307080E+02  0.9787063701140117E+02  0.9794251172595062E+02  0.9801439507122998E+02
  0.1183916147679860E+03  0.1183916147679860E+03  0.1183916147679860E+03  0.1183916147679860E+03  0.1183916147679860E+03
  0.1183916147679860E+03  0.1183916147679860E+03  0.1183916147679860E+03  0.1183916147679860E+03  0.1183916147679860E+03
  0.1183916147679860E+03  0.1183916147679860E+03  0.1183916147679860E+03  0.1183916147679860E+03  0.1183916147679860E+03
  0.1183916147679860E+03  0.1183916147679860E+03  0.1183916147679860E+03  0.1183916147679860E+03  0.1183916147679860E+03
  0.1183916147679860E+03  0.1183916147679860E+03  0.1183916147679860E+03  0.1183916147679860E+03  0.1183916147679860E+03
  0.1183916147679860E+03  0.1183916147679860E+03  0.1183916147679860E+03  0.1183916147679860E+03  0.1183916147679860E+03
  0.1183916147679860E+03  0.1183916147679860E+03  0.1183916147679860E+03  0.1183916147679860E+03  0.1183916147679860E+03
  0.1183916147679860E+03  0.1183916147679860E+03  0.1183916147679860E+03  0.1183916147679860E+03  0.1183916147679860E+03
  0.1183916147679860E+03  0.1183916147679860E+03  0.1183916147679860E+03  0.1183916147679860E+03  0.1183916147679860E+03
  0.1183916147679860E+03  0.1183916147679860E+03  0.1183916147679860E+03  0.1183916147679860E+03  0.1183916147679860E+03
  0.1183916147679860E+03  0.1183916147679860E+03  0.1183916147679860E+03  0.1183916147679860E+03  0.1183916147679860E+03
  0.1183916147679860E+03  0.1183916147679860E+03  0.1183916147679860E+03  0.1183916147679860E+03  0.1183916147679860E+03
  0.1183916147679860E+03  0.1183916147679860E+03  0.1183916147679860E+03  0.1183916147679860E+03  0.1183916147679860E+03
  0.1183916147679860E+03  0.1183916147679860E+03  0.1183916147679860E+03  0.1183916147679860E+03  0.1183916147679860E+03
  0.1183916147679860E+03  0.1183916147679860E+03  0.1183916147679860E+03  0.1183916147679860E+03  0.1183916147679860E+03
  0.1183916147679860E+03  0.1183916147679860E+03  0.1183916147679860E+03  0.1183916147679860E+03  0.1183916147679860E+03
  0.1183916147679860E+03  0.1183916147679860E+03  0.1183916147679860E+03  0.1183916147679860E+03  0.1183916147679860E+03
  0.1183916147679860E+03  0.1183916147679860E+03  0.1183916147679860E+03  0.1183916147679860E+03  0.1183916147679860E+03
  0.1183916147679860E+03  0.1183916147679860E+03  0.1183916147679860E+03  0.1183916147679860E+03  0.1183916147679860E+03
  0.1183916147679860E+03  0.1183916147679860E+03  0.1183916147679860E+03  0.1183916147679860E+03  0.1183916147679860E+03
  0.1183916147679860E+03  0.1183916147679860E+03  0.1183916147679860E+03  0.1183916147679860E+03  0.1183916147679860E+03
  0.1183916147679860E+03  0.1183916147679860E+03  0.1183916147679860E+03  0.1183916147679860E+03  0.1183916147679860E+03
  0.1183916147679860E+03  0.1183916147679860E+03  0.1183916147679860E+03  0.1183916147679860E+03  0.1183916147679860E+03
  0.1183916147679860E+03  0.1183916147679860E+03  0.1183916147679860E+03  0.1183916147679860E+03  0.1183916147679860E+03
  0.1183916147679860E+03  0.1183916147679860E+03  0.1183916147679860E+03  0.1183916147679860E+03  0.1183916147679860E+03
  0.1183916147679860E+03  0.1183916147679860E+03  0.1183916147679860E+03  0.1183916147679860E+03  0.1183916147679860E+03
  0.1183916147679860E+03  0.1183916147679860E+03  0.1183916147679860E+03  0.1183916147679860E+03  0.1183916147679860E+03
  0.1183916147679860E+03  0.1183916147679860E+03  0.1183916147679860E+03  0.1183916147679860E+03  0.1183916147679860E+03
  0.1183916147679860E+03  0.1183916147679860E+03  0.1183916147679860E+03  0.1183916147679860E+03  0.1183916147679860E+03
  0.1183916147679860E+03  0.1183916147679860E+03  0.1183916147679860E+03  0.1183916147679860E+03  0.1183916147679860E+03
  0.1183916147679860E+03  0.1183916147679860E+03  0.1183916147679860E+03  0.1183916147679860E+03  0.1183916147679860E+03
  0.1183916147679860E+03  0.1183916147679860E+03  0.1179664360997745E+03  0.1173737411922885E+03  0.1167840241424456E+03
  0.1161972699886928E+03  0.1156134638446484E+03  0.1150325908987233E+03  0.1144546364137464E+03  0.1138795857265896E+03
  0.1133074242477967E+03  0.1127381374612123E+03  0.1121717109236146E+03  0.1116081302643479E+03  0.1110473811849590E+03
  0.1104894494588336E+03  0.1099343209308357E+03  0.1093819815169489E+03  0.1088324172039182E+03  0.1082856140488951E+03
  0.1077415581790837E+03  0.1072002357913889E+03  0.1066616331520656E+03  0.1061257365963713E+03  0.1055925325282183E+03
  0.1050620074198297E+03  0.1045341478113953E+03  0.1040089403107309E+03  0.1034863715929383E+03  0.1029664284000669E+03
  0.1024490975407778E+03  0.1019343658900086E+03  0.1014222203886410E+03  0.1009126480431693E+03  0.1004056359253702E+03
  0.9990117117197572E+02  0.9939924098434614E+02  0.9889983262814552E+02  0.9840293343301865E+02  0.9790853079226973E+02
  0.9741661216254205E+02  0.9692716506350047E+02  0.9644017707751397E+02  0.9595563584934146E+02  0.9547352908581742E+02
  0.9499384455554089E+02  0.9451657008856448E+02  0.9404169357608608E+02  0.9356920297014116E+02  0.9309908628329764E+02
  0.9263133158835136E+02  0.9216592701802374E+02  0.9170286076466043E+02  0.9124212107993203E+02  0.9078369627453573E+02
  0.9032757471789907E+02  0.8987374483788456E+02  0.8942219512049638E+02  0.8897291410958795E+02  0.8852589040657145E+02
  0.8808111267012872E+02  0.8763856961592329E+02  0.8719825001631438E+02  0.8676014270007158E+02  0.8632423655209207E+02
  0.8589052051311802E+02  0.8545898357945646E+02  0.8502961480269973E+02  0.8460240328944816E+02  0.8417733820103302E+02
  0.8375440875324234E+02  0.8333360421604675E+02  0.8291491391332738E+02  0.8249832722260511E+02  0.8208383357477105E+02
  0.8167142245381811E+02  0.8126108339657470E+02  0.8085280599243886E+02  0.8044657988311421E+02  0.8004239476234736E+02
  0.7964024037566631E+02  0.7924010652012005E+02  0.7884198304402021E+02  0.7844585984668299E+02  0.7805172687817321E+02
  0.7765957413904928E+02  0.7726939168010951E+02  0.7688116960213945E+02  0.7649489805566122E+02  0.7611056724068320E+02
  0.7572816740645152E+02  0.7534768885120285E+02  0.7496912192191793E+02  0.7459245701407696E+02  0.7421768457141583E+02
  0.7384479508568360E+02  0.7347377909640132E+02  0.7310462719062207E+02  0.7273733000269206E+02  0.7237187821401301E+02
  0.7200826255280586E+02  0.7164647379387542E+02  0.7128650275837617E+02  0.7092834031357985E+02  0.7057197737264330E+02
  0.7021740489437808E+02  0.6986461388302115E+02  0.6951359538800668E+02  0.6916434050373860E+02  0.6881684036936522E+02
  0.6847108616855400E+02  0.6812706912926799E+02  0.6778478052354338E+02  0.6744421166726801E+02  0.6710535391996081E+02
  0.6676819868455310E+02  0.6643273740716990E+02  0.6609896157691331E+02  0.6576686272564650E+02  0.6543643242777874E+02
  0.6510766230005171E+02  0.6478054400132693E+02  0.6445506923237393E+02  0.6413122973565977E+02  0.6380901729513969E+02
  0.6348842373604845E+02  0.6316944092469294E+02  0.6285206076824606E+02  0.6253627521454113E+02  0.6222207625186772E+02
  0.6190945590876843E+02  0.6159840625383654E+02  0.6128891939551482E+02  0.6098098748189541E+02  0.6067460270052047E+02
  0.6036975727818403E+02  0.6006644348073484E+02  0.5976465361288007E+02  0.5946438001799004E+02  0.5916561507790415E+02
  0.5886835121273733E+02  0.5857258088068795E+02  0.5827829657784646E+02  0.5798549083800486E+02  0.5769415623246741E+02
  0.5740428536986218E+02  0.5711587089595339E+02  0.5682890549345490E+02  0.5654338188184465E+02  0.5625929281717986E+02
  0.5597663109191312E+02  0.5569538953470985E+02  0.5541556101026605E+02  0.5513713841912744E+02  0.5486011469750929E+02
  0.5458448281711721E+02  0.5431023578496882E+02  0.5403736664321641E+02  0.5376586846897031E+02  0.5349573437412327E+02
  0.5322695750517578E+02  0.5295953104306223E+02  0.5269344820297757E+02  0.5242870223420572E+02  0.5216528641994773E+02
  0.5190319407715181E+02  0.5164241855634361E+02  0.5138295324145746E+02  0.5112479154966856E+02  0.5086792693122605E+02
  0.5061235286928671E+02  0.5035806287974967E+02  0.5010505051109202E+02  0.4985330934420492E+02  0.4960283299223084E+02
  0.4935361510040163E+02  0.4910564934587707E+02  0.4885892943758468E+02  0.4861344911606001E+02  0.4836920215328775E+02
  0.4812618235254385E+02  0.4788438354823830E+02  0.4764379960575857E+02  0.4740442442131415E+02  0.4716625192178154E+02
  0.4692927606455029E+02  0.4669349083736957E+02  0.4645889025819584E+02  0.4622546837504077E+02  0.4599321926582051E+02
  0.4576213703820537E+02  0.4553221582947020E+02  0.4530344980634583E+02  0.4507583316487100E+02  0.4484936013024505E+02
  0.4462402495668145E+02  0.4439982192726213E+02  0.4417674535379228E+02  0.4395478957665604E+02  0.4373394896467311E+02
  0.4351421791495565E+02  0.4329559085276623E+02  0.4307806223137649E+02  0.4286162653192613E+02  0.4264627826328324E+02
  0.4243201196190481E+02  0.4221882219169803E+02  0.4200670354388256E+02  0.4179565063685320E+02  0.4158565811604338E+02
  0.4137672065378929E+02  0.4116883294919467E+02  0.4096198972799650E+02  0.4075618574243097E+02  0.4055141577110052E+02
  0.4034767461884118E+02  0.4014495711659096E+02  0.3994325812125862E+02  0.3974257251559310E+02  0.3954289520805387E+02
  0.3934422113268162E+02  0.3914654524896982E+02  0.3894986254173666E+02  0.3875416802099808E+02  0.3855945672184101E+02
  0.3836572370429737E+02  0.3817296405321888E+02  0.3798117287815219E+02  0.3779034531321496E+02  0.3760047651697238E+02
  0.3741156167231416E+02  0.3722359598633259E+02  0.3703657469020079E+02  0.3685049303905168E+02  0.3666534631185770E+02
  0.3648112981131106E+02  0.3629783886370435E+02  0.3611546881881223E+02  0.3593401504977329E+02  0.3575347295297276E+02
  0.3557383794792558E+02  0.3539510547716036E+02  0.3521727100610357E+02  0.3504033002296467E+02  0.3486427803862156E+02
  0.3468911058650658E+02  0.3451482322249342E+02  0.3434141152478423E+02  0.3416887109379741E+02  0.3399719755205607E+02
  0.3382638654407690E+02  0.3365643373625974E+02  0.3348733481677757E+02  0.3331908549546715E+02  0.3315168150372016E+02
  0.3298511859437493E+02  0.3281939254160867E+02  0.3265449914083018E+02  0.3249043420857335E+02  0.3232719358239090E+02
  0.3216477312074869E+02  0.3200316870292090E+02  0.3184237622888526E+02  0.3168239161921914E+02  0.3152321081499599E+02
  0.3136482977768242E+02  0.3120724448903567E+02  0.3105045095100175E+02  0.3089444518561400E+02  0.3073922323489197E+02
  0.3058478116074132E+02  0.3043111504485372E+02  0.3027822098860739E+02  0.3012609511296833E+02  0.2997473355839188E+02
  0.2982413248472467E+02  0.2967428807110735E+02  0.2952519651587756E+02  0.2937685403647355E+02  0.2922925686933813E+02
  0.2908240126982323E+02  0.2893628351209490E+02  0.2879089988903879E+02  0.2864624671216611E+02  0.2850232031151991E+02
  0.2835911703558219E+02  0.2821663325118116E+02  0.2807486534339897E+02  0.2793380971548015E+02  0.2779346278874027E+02
  0.2765382100247518E+02  0.2751488081387065E+02  0.2737663869791250E+02  0.2723909114729713E+02  0.2710223467234263E+02
  0.2696606580090014E+02  0.2683058107826582E+02  0.2669577706709320E+02  0.2656165034730591E+02  0.2642819751601102E+02
  0.2629541518741261E+02  0.2616329999272589E+02  0.2603184858009178E+02  0.2590105761449180E+02  0.2577092377766353E+02
  0.2564144376801635E+02  0.2551261430054777E+02  0.2538443210675996E+02  0.2525689393457694E+02  0.2512999654826201E+02
  0.2500373672833570E+02  0.2487811127149405E+02  0.2475311699052736E+02  0.2462875071423931E+02  0.2450500928736654E+02
  0.2438188957049856E+02  0.2425938843999812E+02  0.2413750278792197E+02  0.2401622952194198E+02  0.2389556556526671E+02
  0.2377550785656334E+02  0.2365605334988002E+02  0.2353719901456857E+02  0.2341894183520756E+02  0.2330127881152591E+02
  0.2318420695832665E+02  0.2306772330541127E+02  0.2295182489750431E+02  0.2283650879417840E+02  0.2272177206977969E+02
  0.2260761181335359E+02  0.2249402512857089E+02  0.2238100913365434E+02  0.2226856096130552E+02  0.2215667775863207E+02
  0.2204535668707532E+02  0.2193459492233826E+02  0.2182438965431397E+02  0.2171473808701418E+02  0.2160563743849845E+02
  0.2149708494080355E+02  0.2138907783987326E+02  0.2128161339548841E+02  0.2117468888119748E+02  0.2106830158424735E+02
  0.2096244880551451E+02  0.2085712785943656E+02  0.2075233607394407E+02  0.2064807079039282E+02  0.2054432936349633E+02
  0.2044110916125873E+02  0.2033840756490801E+02  0.2023622196882957E+02  0.2013454978050012E+02  0.2003338842042190E+02
  0.1993273532205723E+02  0.1983258793176338E+02  0.1973294370872785E+02  0.1963380012490383E+02  0.1953515466494608E+02
  0.1943700482614719E+02  0.1933934811837395E+02  0.1924218206400428E+02  0.1914550419786431E+02  0.1904931206716591E+02
  0.1895360323144435E+02  0.1885837526249652E+02  0.1876362574431918E+02  0.1866935227304780E+02  0.1857555245689545E+02
  0.1848222391609221E+02  0.1838936428282475E+02  0.1829697120117629E+02  0.1820504232706677E+02  0.1811357532819343E+02
  0.1802256788397163E+02  0.1793201768547595E+02  0.1784192243538165E+02  0.1775227984790636E+02  0.1766308764875206E+02
  0.1757434357504748E+02  0.1748604537529053E+02  0.1739819080929133E+02  0.1731077764811530E+02  0.1722380367402662E+02
  0.1713726668043197E+02  0.1705116447182454E+02  0.1696549486372832E+02  0.1688025568264273E+02  0.1679544476598740E+02
  0.1671105996204735E+02  0.1662709912991843E+02  0.1654356013945289E+02  0.1646044087120548E+02  0.1637773921637958E+02
  0.1629545307677371E+02  0.1621358036472837E+02  0.1613211900307295E+02  0.1605106692507317E+02  0.1597042207437851E+02
  0.1589018240497015E+02  0.1581034588110899E+02  0.1573091047728404E+02  0.1565187417816104E+02  0.1557323497853125E+02
  0.1549499088326067E+02  0.1541713990723941E+02  0.1533968007533126E+02  0.1526260942232365E+02  0.1518592599287774E+02
  0.1510962784147884E+02  0.1503371303238708E+02  0.1495817963958821E+02  0.1488302574674482E+02  0.1480824944714770E+02
  0.1473384884366743E+02  0.1465982204870630E+02  0.1458616718415038E+02  0.1451288238132188E+02  0.1443996578093176E+02
  0.1436741553303255E+02  0.1429522979697140E+02  0.1422340674134337E+02  0.1415194454394504E+02  0.1408084139172817E+02
  0.1401009548075380E+02  0.1393970501614639E+02  0.1386966821204842E+02  0.1379998329157490E+02  0.1373064848676844E+02
  0.1366166203855432E+02  0.1359302219669590E+02  0.1352472721975017E+02  0.1345677537502360E+02  0.1338916493852819E+02
  0.1332189419493771E+02  0.1325496143754417E+02  0.1318836496821454E+02  0.1312210309734767E+02  0.1305617414383142E+02
  0.1299057643500000E+02  0.1292530830659154E+02  0.1286036810270584E+02  0.1279575417576242E+02  0.1273146488645867E+02
  0.1266749860372826E+02  0.1260385370469977E+02  0.1254052857465554E+02  0.1247752160699066E+02  0.1241483120317222E+02
  0.1235245577269880E+02  0.1229039373306004E+02  0.1222864350969656E+02  0.1216720353595996E+02  0.1210607225307311E+02
  0.1204524811009059E+02  0.1198472956385933E+02  0.1192451507897947E+02  0.1186460312776541E+02  0.1180499219020705E+02
  0.1174568075393120E+02  0.1168666731416324E+02  0.1162795037368894E+02  0.1156952844281648E+02  0.1151140003933859E+02
  0.1145356368849506E+02  0.1139601792293522E+02  0.1133876128268077E+02  0.1128179231508872E+02  0.1122510957481453E+02
  0.1116871162377545E+02  0.1111259703111403E+02  0.1105676437316182E+02  0.1100121223340326E+02  0.1094593920243971E+02
  0.1089094387795370E+02  0.1083622486467342E+02  0.1078178077433721E+02  0.1072761022565840E+02  0.1067371184429027E+02
  0.1062008426279116E+02  0.1056672612058979E+02  0.1051363606395072E+02  0.1046081274594004E+02  0.1040825482639116E+02
  0.1035596097187083E+02  0.1030392985564527E+02  0.1025216015764660E+02  0.1020065056443924E+02  0.1014939976918663E+02
  0.1009840647161811E+02  0.1004766937799589E+02  0.9997187201082214E+01  0.9946958660106725E+01  0.9896982480733980E+01
  0.9847257395031074E+01  0.9797782141435521E+01  0.9748555464723202E+01  0.9699576115976557E+01  0.9650842852552875E+01
  0.9602354438052746E+01  0.9554109642288727E+01  0.9506107241254130E+01  0.9458346017091920E+01  0.9410824758063866E+01
  0.9363542258519772E+01  0.9316497318866867E+01  0.9269688745539440E+01  0.9223115350968463E+01  0.9176775953551514E+01
  0.9130669377622795E+01  0.9084794453423266E+01  0.9039150017071014E+01  0.8993734910531689E+01  0.8948547981589121E+01
  0.8903588083816095E+01  0.8858854076545260E+01  0.8814344824840179E+01  0.8770059199466532E+01  0.8725996076863476E+01
  0.8682154339115106E+01  0.8638532873922127E+01  0.8595130574573586E+01  0.8551946339918844E+01  0.8508979074339576E+01
  0.8466227687722006E+01  0.8423691095429223E+01  0.8381368218273689E+01  0.8339257982489817E+01  0.8297359319706739E+01
  0.8255671166921200E+01  0.8214192466470582E+01  0.8172922166006044E+01  0.8131859218465838E+01  0.8091002582048727E+01
  0.8050351220187551E+01  0.8009904101522910E+01  0.7969660199877010E+01  0.7929618494227604E+01  0.7889777968682075E+01
  0.7850137612451665E+01  0.7810696419825821E+01  0.7771453390146659E+01  0.7732407527783572E+01  0.7693557842107967E+01
  0.7654903347468099E+01  0.7616443063164099E+01  0.7578176013423024E+01  0.7540101227374119E+01  0.7502217739024179E+01
  0.7464524587233011E+01  0.7427020815689041E+01  0.7389705472885054E+01  0.7352577612094007E+01  0.7315636291345028E+01
  0.7278880573399475E+01  0.7242309525727162E+01  0.7205922220482672E+01  0.7169717734481803E+01  0.7133695149178128E+01
  0.7097853550639668E+01  0.7062192029525693E+01  0.7026709681063642E+01  0.6991405605026118E+01  0.6956278905708049E+01
  0.6921328691903942E+01  0.6886554076885237E+01  0.6851954178377806E+01  0.6817528118539525E+01  0.6783275023937987E+01
  0.6749194025528321E+01  0.6715284258631113E+01  0.6681544862910436E+01  0.6647974982352000E+01  0.6614573765241404E+01
  0.6581340364142498E+01  0.6548273935875842E+01  0.6515373641497312E+01  0.6482638646276740E+01  0.6450068119676726E+01
  0.6417661235331530E+01  0.6385417171026071E+01  0.6353335108675019E+01  0.6321414234302009E+01  0.6289653738018938E+01
  0.6258052814005406E+01  0.6226610660488191E+01  0.6195326479720880E+01  0.6164199477963593E+01  0.6133228865462778E+01
  0.6102413856431143E+01  0.6071753669027657E+01  0.6041247525337681E+01  0.6010894651353158E+01  0.5980694276952927E+01
  0.5950645635883127E+01  0.5920747965737714E+01  0.5891000507939030E+01  0.5861402507718516E+01  0.5831953214097493E+01
  0.5802651879868037E+01  0.5773497761573974E+01  0.5744490119491922E+01  0.5715628217612459E+01  0.5686911323621390E+01
  0.5658338708881073E+01  0.5629909648411869E+01  0.5601623420873655E+01  0.5573479308547444E+01  0.5545476597317093E+01
  0.5517614576651100E+01  0.5489892539584468E+01  0.5462309782700695E+01  0.5434865606113820E+01  0.5407559313450572E+01
  0.5380390211832596E+01  0.5353357611858777E+01  0.5326460827587630E+01  0.5299699176519789E+01  0.5273071979580580E+01
  0.5246578561102672E+01  0.5220218248808817E+01  0.5193990373794666E+01  0.5167894270511662E+01  0.5141929276750036E+01
  0.5116094733621875E+01  0.5090389985544236E+01  0.5064814380222399E+01  0.5039367268633165E+01  0.5014048005008227E+01
  0.4988855946817640E+01  0.4963790454753359E+01  0.4938850892712852E+01  0.4914036627782789E+01  0.4889347030222814E+01
  0.4864781473449400E+01  0.4840339334019749E+01  0.4816019991615797E+01  0.4791822829028285E+01  0.4767747232140890E+01
  0.4743792589914463E+01  0.4719958294371290E+01  0.4696243740579464E+01  0.4672648326637320E+01  0.4649171453657929E+01
  0.4625812525753679E+01  0.4602570950020913E+01  0.4579446136524638E+01  0.4556437498283318E+01  0.4533544451253706E+01
  0.4510766414315778E+01  0.4488102809257704E+01  0.4465553060760908E+01  0.4443116596385176E+01  0.4420792846553850E+01
  0.4398581244539062E+01  0.4376481226447067E+01  0.4354492231203596E+01  0.4332613700539309E+01  0.4310845078975292E+01
  0.4289185813808624E+01  0.4267635355098009E+01  0.4246193155649451E+01  0.4224858671002015E+01  0.4203631359413625E+01
  0.4182510681846940E+01  0.4161496101955278E+01  0.4140587086068592E+01  0.4119783103179533E+01  0.4099083624929527E+01
  0.4078488125594946E+01  0.4057996082073326E+01  0.4037606973869615E+01  0.4017320283082513E+01  0.3997135494390836E+01
  0.3977052095039967E+01  0.3957069574828318E+01  0.3937187426093877E+01  0.3917405143700795E+01  0.3897722225026031E+01
  0.3878138169946029E+01  0.3858652480823470E+01  0.3839264662494055E+01  0.3819974222253349E+01  0.3800780669843661E+01
  0.3781683517440984E+01  0.3762682279641971E+01  0.3743776473450971E+01  0.3724965618267089E+01  0.3706249235871311E+01
  0.3687626850413671E+01  0.3669097988400444E+01  0.3650662178681409E+01  0.3632318952437127E+01  0.3614067843166281E+01
  0.3595908386673058E+01  0.3577840121054544E+01  0.3559862586688189E+01  0.3541975326219300E+01  0.3524177884548569E+01
  0.3506469808819646E+01  0.3488850648406734E+01  0.3471319954902244E+01  0.3453877282104457E+01  0.3436522186005251E+01
  0.3419254224777832E+01  0.3402072958764521E+01  0.3384977950464560E+01  0.3367968764521961E+01  0.3351044967713370E+01
  0.3334206128935987E+01  0.3317451819195478E+01  0.3300781611593953E+01  0.3284195081317947E+01  0.3267691805626439E+01
  0.3251271363838903E+01  0.3234933337323363E+01  0.3218677309484493E+01  0.3202502865751737E+01  0.3186409593567446E+01
  0.3170397082375035E+01  0.3154464923607176E+01  0.3138612710673997E+01  0.3122840038951305E+01  0.3107146505768834E+01
  0.3091531710398494E+01  0.3075995254042669E+01  0.3060536739822487E+01  0.3045155772766145E+01  0.3029851959797223E+01
  0.3014624909723034E+01  0.2999474233222954E+01  0.2984399542836802E+01  0.2969400452953195E+01  0.2954476579797948E+01
  0.2939627541422445E+01  0.2924852957692047E+01  0.2910152450274499E+01  0.2895525642628331E+01  0.2880972159991283E+01
  0.2866491629368718E+01  0.2852083679522050E+01  0.2837747940957162E+01  0.2823484045912835E+01  0.2809291628349166E+01
  0.2795170323936003E+01  0.2781119770041349E+01  0.2767139605719798E+01  0.2753229471700935E+01  0.2739389010377751E+01
  0.2725617865795032E+01  0.2711915683637766E+01  0.2698282111219523E+01  0.2684716797470817E+01  0.2671219392927488E+01
  0.2657789549719034E+01  0.2644426921556964E+01  0.2631131163723108E+01  0.2617901933057934E+01  0.2604738887948820E+01
  0.2591641688318350E+01  0.2578609995612538E+01  0.2565643472789087E+01  0.2552741784305578E+01  0.2539904596107660E+01
  0.2527131575617217E+01  0.2514422391720502E+01  0.2501776714756248E+01  0.2489194216503734E+01  0.2476674570170866E+01
  0.2464217450382164E+01  0.2451822533166780E+01  0.2439489495946427E+01  0.2427218017523331E+01  0.2415007778068079E+01
  0.2402858459107495E+01  0.2390769743512432E+01  0.2378741315485550E+01  0.2366772860549038E+01  0.2354864065532293E+01
  0.2343014618559573E+01  0.2331224209037578E+01  0.2319492527643006E+01  0.2307819266310040E+01  0.2296204118217815E+01
  0.2284646777777793E+01  0.2273146940621130E+01  0.2261704303585952E+01  0.2250318564704597E+01  0.2238989423190783E+01
  0.2227716579426744E+01  0.2216499734950282E+01  0.2205338592441755E+01  0.2194232855711037E+01  0.2183182229684362E+01
  0.2172186420391155E+01  0.2161245134950755E+01  0.2150358081559094E+01  0.2139524969475290E+01  0.2128745509008185E+01
  0.2118019411502794E+01  0.2107346389326693E+01  0.2096726155856324E+01  0.2086158425463218E+01  0.2075642913500159E+01
  0.2065179336287243E+01  0.2054767411097878E+01  0.2044406856144678E+01  0.2034097390565304E+01  0.2023838734408184E+01
  0.2013630608618183E+01  0.2003472735022144E+01  0.1993364836314392E+01  0.1983306636042083E+01  0.1973297858590528E+01
  0.1963338229168368E+01  0.1953427473792695E+01  0.1943565319274057E+01  0.1933751493201365E+01  0.1923985723926718E+01
  0.1914267740550117E+01  0.1904597272904083E+01  0.1894974051538173E+01  0.1885397807703399E+01  0.1875868273336538E+01
  0.1866385181044351E+01  0.1856948264087676E+01  0.1847557256365446E+01  0.1838211892398575E+01  0.1828911907313761E+01
  0.1819657036827151E+01  0.1810447017227947E+01  0.1801281585361857E+01  0.1792160478614467E+01  0.1783083434894498E+01
  0.1774050192616957E+01  0.1765060490686180E+01  0.1756114068478756E+01  0.1747210665826372E+01  0.1738350022998520E+01
  0.1729531880685118E+01  0.1720755979979020E+01  0.1712022062358413E+01  0.1703329869669122E+01  0.1694679144106806E+01
  0.1686069628199054E+01  0.1677501064787369E+01  0.1668973197009077E+01  0.1660485768279110E+01  0.1652038522271718E+01
  0.1643631202902066E+01  0.1635263554307766E+01  0.1626935320830279E+01  0.1618646246996281E+01  0.1610396077498902E+01
  0.1602184557178911E+01  0.1594011431005815E+01  0.1585876444058879E+01  0.1577779341508092E+01  0.1569719868595052E+01
  0.1561697770613800E+01  0.1553712792891590E+01  0.1545764680769620E+01  0.1537853179583703E+01  0.1529978034644917E+01
  0.1522138991220195E+01  0.1514335794512920E+01  0.1506568189643475E+01  0.1498835921629793E+01  0.1491138735367892E+01
  0.1483476375612431E+01  0.1475848586957260E+01  0.1468255113816002E+01  0.1460695700402659E+01  0.1453170090712269E+01
  0.1445678028501607E+01  0.1438219257269941E+01  0.1430793520239892E+01  0.1423400560338341E+01  0.1416040120177475E+01
  0.1408711942035918E+01  0.1401415767840008E+01  0.1394151339145209E+01  0.1386918397117686E+01  0.1379716682516049E+01
  0.1372545935673299E+01  0.1365405896478985E+01  0.1358296304361570E+01  0.1351216898271081E+01  0.1344167416661991E+01
  0.1337147597476433E+01  0.1330157178127675E+01  0.1323195895483989E+01  0.1316263485852832E+01  0.1309359684965444E+01
  0.1302484227961842E+01  0.1295636849376258E+01  0.1288817283123047E+01  0.1282025262483085E+01  0.1275260520090699E+01
  0.1268522787921155E+01  0.1261811797278741E+01  0.1255127278785466E+01  0.1248468962370436E+01  0.1241836577259910E+01
  0.1235229851968111E+01  0.1228648514288798E+01  0.1222092291287660E+01  0.1215560909295564E+01  0.1209054093902718E+01
  0.1202571569953761E+01  0.1196113061543859E+01  0.1189678292015844E+01  0.1183266983958432E+01  0.1176878859205599E+01
  0.1170513638837126E+01  0.1164171043180430E+01  0.1157850791813657E+01  0.1151552603570171E+01  0.1145276196544440E+01
  0.1139021288099421E+01  0.1132787594875474E+01  0.1126574832800892E+01  0.1120382717104098E+01  0.1114210962327591E+01
  0.1108059282343692E+01  0.1101927390372171E+01  0.1095814998999831E+01  0.1089721820202110E+01  0.1083647565366795E+01
  0.1077591945319889E+01  0.1071554670353771E+01  0.1065535450257650E+01  0.1059533994350471E+01  0.1053550011516298E+01
  0.1047583210242285E+01  0.1041633298659324E+01  0.1035699984585436E+01  0.1029782975572004E+01  0.1023881978952949E+01
  0.1017996701896912E+01  0.1012126851462545E+01  0.1006272134657015E+01  0.1000432258497784E+01  0.9946069300777817E+00
  0.9887958566340447E+00  0.9829987456199304E+00  0.9772153047809772E+00  0.9714452422345270E+00  0.9656882665531723E+00
  0.9599440868521495E+00  0.9542124128807373E+00  0.9484929551177625E+00  0.9427854248713119E+00  0.9370895343827040E+00
  0.9314049969348314E+00  0.9257315269649354E+00  0.9200688401819065E+00  0.9144166536881639E+00  0.9087746861062083E+00
  0.9031426577098955E+00  0.8975202905605038E+00  0.8919073086476467E+00  0.8863034380350991E+00  0.8807084070115564E+00
  0.8751219462464013E+00  0.8695437889504869E+00  0.8639736710419724E+00  0.8584113313172441E+00  0.8528565116269136E+00
  0.8473089570569126E+00  0.8417684161146686E+00  0.8362346409203637E+00  0.8307073874032221E+00  0.8251864155028276E+00
  0.8196714893753876E+00  0.8141623776049107E+00  0.8086588534192083E+00  0.8031606949106509E+00  0.7976676852615634E+00
  0.7921796129741517E+00  0.7866962721048416E+00  0.7812174625028614E+00  0.7757429900529376E+00  0.7702726669218934E+00
  0.7648063118089804E+00  0.7593437501997078E+00  0.7538848146229610E+00  0.7484293449111256E+00  0.7429771884629799E+00
  0.7375282005090353E+00  0.7320822443790247E+00  0.7266391917712122E+00  0.7211989230231545E+00  0.7157613273835481E+00
  0.7103263032847594E+00  0.7048937586156275E+00  0.6994636109940794E+00  0.6940357880391174E+00  0.6886102276416733E+00
  0.6831868782338331E+00  0.6777656990558946E+00  0.6723466604207264E+00  0.6669297439748268E+00  0.6615149429555253E+00
  0.6561022624436880E+00  0.6506917196113113E+00  0.6452833439633594E+00  0.6398771775731673E+00  0.6344732753107412E+00
  0.6290717050632493E+00  0.6236725479470137E+00  0.6182758985102513E+00  0.6128818649258707E+00  0.6074905691735458E+00
  0.6021021472103634E+00  0.5967167491292413E+00  0.5913345393044229E+00  0.5859556965232402E+00  0.5805804141034340E+00
  0.5752088999952617E+00  0.5698413768676549E+00  0.5644780821777149E+00  0.5591192682228050E+00  0.5537652021745545E+00
  0.5484161660940826E+00  0.5430724569277962E+00  0.5377343864831002E+00  0.5324022813834443E+00  0.5270764830020942E+00
  0.5217573473741226E+00  0.5164452450860819E+00  0.5111405611429161E+00  0.5058436948116793E+00  0.5005550594417050E+00
  0.4952750822608819E+00  0.4900042041477790E+00  0.4847428793794150E+00  0.4794915753544931E+00  0.4742507722920407E+00
  0.4690209629053844E+00  0.4638026520515407E+00  0.4585963563560875E+00  0.4534026038137214E+00  0.4482219333647242E+00
  0.4430548944476639E+00  0.4379020465287339E+00  0.4327639586081760E+00  0.4276412087043416E+00  0.4225343833160003E+00
  0.4174440768635990E+00  0.4123708911102106E+00  0.4073154345630425E+00  0.4022783218563790E+00  0.3972601731169765E+00
  0.3922616133129127E+00  0.3872832715870540E+00  0.3823257805762703E+00  0.3773897757176743E+00  0.3724758945431489E+00
  0.3675847759635204E+00  0.3627170595437837E+00  0.3578733847707974E+00  0.3530543903149469E+00  0.3482607132872789E+00
  0.3434929884936661E+00  0.3387518476875515E+00  0.3340379188228874E+00  0.3293518253088430E+00  0.3246941852679201E+00
  0.3200656107990661E+00  0.3154667072474062E+00  0.3108980724821868E+00  0.3063602961845214E+00  0.3018539591464909E+00
  0.2973796325831306E+00  0.2929378774588216E+00  0.2885292438295186E+00  0.2841542702022661E+00  0.2798134829133302E+00
  0.2755073955262992E+00  0.2712365082513709E+00  0.2670013073870455E+00  0.2628022647853173E+00  0.2586398373414415E+00
  0.2545144665092297E+00  0.2504265778427813E+00  0.2463765805654573E+00  0.2423648671668414E+00  0.2383918130283178E+00
  0.2344577760778300E+00  0.2305630964743034E+00  0.2267080963220902E+00  0.2228930794157588E+00  0.2191183310153971E+00
  0.2153841176525829E+00  0.2116906869670161E+00  0.2080382675737855E+00  0.2044270689610884E+00  0.2008572814182322E+00
  0.1973290759935524E+00  0.1938426044819148E+00  0.1903979994413102E+00  0.1869953742380347E+00  0.1836348231198413E+00
  0.1803164213164165E+00  0.1770402251664512E+00  0.1738062722705170E+00  0.1706145816689516E+00  0.1674651540438264E+00
  0.1643579719441132E+00  0.1612930000330635E+00  0.1582701853568132E+00  0.1552894576331810E+00  0.1523507295596016E+00
  0.1494538971391292E+00  0.1465988400233999E+00  0.1437854218714662E+00  0.1410134907233600E+00  0.1382828793872992E+00
  0.1355934058393740E+00  0.1329448736346275E+00  0.1303370723283978E+00  0.1277697779068196E+00  0.1252427532254039E+00
  0.1227557484546058E+00  0.1203085015313400E+00  0.1179007386153930E+00  0.1155321745497410E+00  0.1132025133237663E+00
  0.1109114485384366E+00  0.1086586638725141E+00  0.1064438335488955E+00  0.1042666228002341E+00  0.1021266883330078E+00
  0.1000236787892536E+00  0.9795723520520848E-01  0.9592699146613869E-01  0.9393257475669643E-01  0.9197360600613791E-01
  0.9004970032782844E-01  0.8816046745245078E-01  0.8630551215440717E-01  0.8448443467091732E-01  0.8269683111337328E-01
  0.8094229387053135E-01  0.7922041200317029E-01  0.7753077162987898E-01  0.7587295630365792E-01  0.7424654737908477E-01
  0.7265112436978156E-01  0.7108626529600304E-01  0.6955154702215546E-01  0.6804654558410959E-01  0.6657083650619491E-01
  0.6512399510778061E-01  0.6370559679939126E-01  0.6231521736831339E-01  0.6095243325369104E-01  0.5961682181110793E-01
  0.5830796156670442E-01  0.5702543246086916E-01  0.5576881608158228E-01  0.5453769588750184E-01  0.5333165742089188E-01
  0.5215028851052208E-01  0.5099317946466424E-01  0.4985992325434497E-01  0.4875011568700256E-01  0.4766335557072682E-01
  0.4659924486926194E-01  0.4555738884795506E-01  0.4453739621085612E-01  0.4353887922916505E-01  0.4256145386124083E-01
  0.4160473986438642E-01  0.4066836089862263E-01  0.3975194462268622E-01  0.3885512278246081E-01  0.3797753129208250E-01
  0.3711881030793891E-01  0.3627860429579680E-01  0.3545656209128357E-01  0.3465233695395589E-01  0.3386558661518015E-01
  0.3309597332005332E-01  0.3234316386359222E-01  0.3160682962140617E-01  0.3088664657508585E-01  0.3018229533251312E-01
  0.2949346114331684E-01  0.2881983390967977E-01  0.2816110819270575E-01  0.2751698321455216E-01  0.2688716285652433E-01
  0.2627135565333014E-01  0.2566927478368262E-01  0.2508063805744049E-01  0.2450516789946271E-01  0.2394259133036186E-01
  0.2339263994431971E-01  0.2285504988413848E-01  0.2232956181368827E-01  0.2181592088790619E-01  0.2131387672050334E-01
  0.2082318334952288E-01  0.2034359920089633E-01  0.1987488705013211E-01  0.1941681398227101E-01  0.1896915135023734E-01
  0.1853167473170736E-01  0.1810416388461553E-01  0.1768640270141107E-01  0.1727817916217604E-01  0.1687928528670877E-01
  0.1648951708567355E-01  0.1610867451091487E-01  0.1573656140502450E-01  0.1537298545025530E-01  0.1501775811685973E-01
  0.1467069461093881E-01  0.1433161382187422E-01  0.1400033826941861E-01  0.1367669405051236E-01  0.1336051078589228E-01
  0.1305162156655621E-01  0.1274986290014018E-01  0.1245507465726684E-01  0.1216710001791506E-01  0.1188578541786352E-01
  0.1161098049525325E-01  0.1134253803731402E-01  0.1108031392729703E-01  0.1082416709165127E-01  0.1057395944748219E-01
  0.1032955585032474E-01  0.1009082404226515E-01  0.9857634600438203E-02  0.9629860885931431E-02  0.9407378993118078E-02
  0.9190067699445083E-02  0.8977808415697461E-02  0.8770485136758254E-02  0.8567984392883863E-02  0.8370195201510359E-02
  0.8177009019607131E-02  0.7988319696590978E-02  0.7804023427813033E-02  0.7624018708630580E-02  0.7448206289072281E-02
  0.7276489129106807E-02  0.7108772354521050E-02  0.6944963213415803E-02  0.6784971033322920E-02  0.6628707178949562E-02
  0.6476085010552540E-02  0.6327019842944951E-02  0.6181428905138660E-02  0.6039231300621321E-02  0.5900347968270607E-02
  0.5764701643903721E-02  0.5632216822462273E-02  0.5502819720830358E-02  0.5376438241283991E-02  0.5253001935569510E-02
  0.5132441969607235E-02  0.5014691088817664E-02  0.4899683584065105E-02  0.4787355258215846E-02  0.4677643393304542E-02
  0.4570486718304887E-02  0.4465825377498810E-02  0.4363600899438280E-02  0.4263756166494317E-02  0.4166235384986430E-02
  0.4070984055886713E-02  0.3977948946091383E-02  0.3887078060253726E-02  0.3798320613170710E-02  0.3711627002716874E-02
  0.3626948783318119E-02  0.3544238639957808E-02  0.3463450362708329E-02  0.3384538821780066E-02  0.3307459943080797E-02
  0.3232170684277564E-02  0.3158629011353312E-02  0.3086793875651304E-02  0.3016625191398534E-02  0.2948083813701556E-02
  0.2881131517006198E-02  0.2815730974014006E-02  0.2751845735047371E-02  0.2689440207855962E-02  0.2628479637856672E-02
  0.2568930088799445E-02  0.2510758423851746E-02  0.2453932287093611E-02  0.2398420085416452E-02  0.2344190970817705E-02
  0.2291214823084305E-02  0.2239462232857571E-02  0.2188904485072269E-02  0.2139513542762901E-02  0.2091262031229877E-02
  0.2044123222558974E-02  0.1998071020486640E-02  0.1953079945605033E-02  0.1909125120899332E-02  0.1866182257611206E-02
  0.1824227641421665E-02  0.1783238118946793E-02  0.1743191084540131E-02  0.1704064467395244E-02  0.1665836718942456E-02
  0.1628486800533488E-02  0.1591994171408168E-02  0.1556338776937083E-02  0.1521501037134543E-02  0.1487461835436086E-02
  0.1454202507734795E-02  0.1421704831671049E-02  0.1389951016170093E-02  0.1358923691222267E-02  0.1328605897900494E-02
  0.1298981078609865E-02  0.1270033067564458E-02  0.1241746081486075E-02  0.1214104710520356E-02  0.1187093909365205E-02
  0.1160698988607039E-02  0.1134905606260036E-02  0.1109699759504077E-02  0.1085067776616744E-02  0.1060996309095126E-02
  0.1037472323963218E-02  0.1014483096260498E-02  0.9920162017079545E-03  0.9700595095471257E-03  0.9486011755485768E-03
  0.9276296351857265E-03  0.9071335969703304E-03  0.8871020359459531E-03  0.8675241873357132E-03  0.8483895403408639E-03
  0.8296878320866235E-03  0.8114090417119819E-03  0.7935433846000110E-03  0.7760813067455420E-03  0.7590134792569970E-03
  0.7423307929891711E-03  0.7260243533040607E-03  0.7100854749565990E-03  0.6945056771025090E-03  0.6792766784253216E-03
  0.6643903923798283E-03  0.6498389225492138E-03  0.6356145581131613E-03  0.6217097694244069E-03  0.6081172036910862E-03
  0.5948296807624677E-03  0.5818401890155497E-03  0.5691418813402097E-03  0.5567280712205191E-03  0.5445922289099544E-03
  0.5327279776983368E-03  0.5211290902681935E-03  0.5097894851385738E-03  0.4987032231940974E-03  0.4878645042973129E-03
  0.4772676639822990E-03  0.4669071702276360E-03  0.4567776203068103E-03  0.4468737377142030E-03  0.4371903691649086E-03
  0.4277224816665166E-03  0.4184651596612655E-03  0.4094136022367405E-03  0.4005631204036004E-03  0.3919091344386345E-03
  0.3834471712916235E-03  0.3751728620544797E-03  0.3670819394911283E-03  0.3591702356267276E-03  0.3514336793947392E-03
  0.3438682943405241E-03  0.3364701963800307E-03  0.3292355916123090E-03  0.3221607741845318E-03  0.3152421242082433E-03
  0.3084761057256295E-03  0.3018592647245769E-03  0.2953882272013687E-03  0.2890596972698385E-03  0.2828704553158970E-03
  0.2768173561963098E-03  0.2708973274806531E-03  0.2651073677354428E-03  0.2594445448493707E-03  0.2539059943986936E-03
  0.2484889180517744E-03  0.2431905820118597E-03  0.2380083154971418E-03  0.2329395092572185E-03  0.2279816141250811E-03
  0.2231321396037332E-03  0.2183886524866673E-03  0.2137487755113034E-03  0.2092101860446637E-03  0.2047706148004536E-03
  0.2004278445868203E-03  0.1961797090840292E-03  0.1920240916513429E-03  0.1879589241624010E-03  0.1839821858683947E-03
  0.1800919022883942E-03  0.1762861441261308E-03  0.1725630262126396E-03  0.1689207064741037E-03  0.1653573849243041E-03
  0.1618713026810871E-03  0.1584607410062509E-03  0.1551240203683083E-03  0.1518594995275477E-03  0.1486655746428841E-03
  0.1455406783999395E-03  0.1424832791598685E-03  0.1394918801284177E-03  0.1365650185447233E-03  0.1337012648893874E-03
  0.1308992221113475E-03  0.1281575248731087E-03  0.1254748388138706E-03  0.1228498598301428E-03  0.1202813133734083E-03
  0.1177679537644290E-03  0.1153085635238019E-03  0.1129019527183586E-03  0.1105469583230422E-03  0.1082424435978737E-03
  0.1059872974796604E-03  0.1037804339880783E-03  0.1016207916457885E-03  0.9950733291225566E-04  0.9743904363092137E-04
  0.9541493248943893E-04  0.9343403049262431E-04  0.9149539044784577E-04  0.8959808646253276E-04  0.8774121345352817E-04
  0.8592388666798859E-04  0.8414524121556098E-04  0.8240443161156789E-04  0.8070063133092810E-04  0.7903303237256908E-04
  0.7740084483406096E-04  0.7580329649625197E-04  0.7423963241764097E-04  0.7270911453826998E-04  0.7121102129290617E-04
  0.6974464723328512E-04  0.6830930265920713E-04  0.6690431325826705E-04  0.6552901975402004E-04  0.6418277756237064E-04
  0.6286495645600320E-04  0.6157494023664735E-04  0.6031212641500013E-04  0.5907592589812376E-04  0.5786576268413210E-04
  0.5668107356400247E-04  0.5552130783033501E-04  0.5438592699289939E-04  0.5327440450080649E-04  0.5218622547114173E-04
  0.5112088642391958E-04  0.5007789502319221E-04  0.4905676982418171E-04  0.4805704002628103E-04  0.4707824523179343E-04
  0.4611993521026642E-04  0.4518166966829417E-04  0.4426301802465512E-04  0.4336355919065841E-04  0.4248288135557940E-04
  0.4162058177705737E-04  0.4077626657634573E-04  0.3994955053829280E-04  0.3914005691594786E-04  0.3834741723967757E-04
  0.3757127113068960E-04  0.3681126611885972E-04  0.3606705746475780E-04  0.3533830798577839E-04  0.3462468788627241E-04
  0.3392587459159518E-04  0.3324155258596854E-04  0.3257141325407375E-04  0.3191515472628665E-04  0.3127248172746638E-04
  0.3064310542921857E-04  0.3002674330554638E-04  0.2942311899181551E-04  0.2883196214694970E-04  0.2825300831878645E-04
  0.2768599881251372E-04  0.2713068056211909E-04  0.2658680600478035E-04  0.2605413295812609E-04  0.2553242450030339E-04
  0.2502144885278227E-04  0.2452097926583700E-04  0.2403079390664024E-04  0.2355067574990621E-04  0.2308041247103019E-04
  0.2261979634165809E-04  0.2216862412763609E-04  0.2172669698928036E-04  0.2129382038391597E-04  0.2086980397062990E-04
  0.2045446151718796E-04  0.2004761080906509E-04  0.1964907356053927E-04  0.1925867532780287E-04  0.1887624542404090E-04
  0.1850161683643641E-04  0.1813462614505146E-04  0.1777511344354641E-04  0.1742292226169060E-04  0.1707789948962494E-04
  0.1673989530383595E-04  0.1640876309480033E-04  0.1608435939626322E-04  0.1576654381611052E-04  0.1545517896880065E-04
  0.1515013040931724E-04  0.1485126656860973E-04  0.1455845869048685E-04  0.1427158076992891E-04  0.1399050949278758E-04
  0.1371512417683944E-04  0.1344530671416412E-04  0.1318094151481484E-04  0.1292191545175271E-04  0.1266811780701568E-04
  0.1241944021909282E-04  0.1217577663147791E-04  0.1193702324237366E-04  0.1170307845552159E-04  0.1147384283213037E-04
  0.1124921904387902E-04  0.1102911182696897E-04  0.1081342793720163E-04  0.1060207610605878E-04  0.1039496699776063E-04
  0.1019201316728232E-04  0.9993129019303947E-05  0.9798230768075166E-05  0.9607236398172172E-05  0.9420065626126994E-05
  0.9236639862909876E-05  0.9056882177244128E-05  0.8880717259736137E-05  0.8708071387799769E-05  0.8538872391360041E-05
  0.8373049619315139E-05  0.8210533906742325E-05  0.8051257542829180E-05  0.7895154239514266E-05  0.7742159100821366E-05
  0.7592208592871060E-05  0.7445240514554845E-05  0.7301193968856296E-05  0.7160009334805246E-05  0.7021628240049972E-05
  0.6885993534033899E-05  0.6753049261763287E-05  0.6622740638151900E-05  0.6495014022930616E-05  0.6369816896108178E-05
  0.6247097833971642E-05  0.6126806485613627E-05  0.6008893549975017E-05  0.5893310753391363E-05  0.5780010827631195E-05
  0.5668947488416332E-05  0.5560075414411979E-05  0.5453350226677256E-05  0.5348728468564956E-05  0.5246167586061123E-05
  0.5145625908554100E-05  0.5047062630023662E-05  0.4950437790641043E-05  0.4855712258769884E-05  0.4762847713360457E-05
  0.4671806626726839E-05  0.4582552247699758E-05  0.4495048585146018E-05  0.4409260391846511E-05  0.4325153148724962E-05
  0.4242693049419266E-05  0.4161846985188268E-05  0.4082582530145862E-05  0.4004867926815988E-05  0.3928672072000286E-05
  0.3853964502952776E-05  0.3780715383853478E-05  0.3708895492575184E-05  0.3638476207736592E-05  0.3569429496035349E-05
  0.3501727899855061E-05  0.3435344525139876E-05  0.3370253029531082E-05  0.3306427610759617E-05  0.3243842995288914E-05
  0.3182474427202726E-05  0.3122297657332247E-05  0.3063288932617446E-05  0.3005424985697322E-05  0.2948683024724171E-05
  0.2893040723396725E-05  0.2838476211207539E-05  0.2784968063899872E-05  0.2732495294129201E-05  0.2681037342325361E-05
  0.2630574067750339E-05  0.2581085739747947E-05  0.2532553029180675E-05  0.2484957000050041E-05  0.2438279101296131E-05
  0.2392501158772466E-05  0.2347605367392533E-05  0.2303574283443801E-05  0.2260390817066181E-05  0.2218038224890596E-05
  0.2176500102834871E-05  0.2135760379052968E-05  0.2095803307034492E-05  0.2056613458851126E-05  0.2018175718546771E-05
  0.1980475275668292E-05  0.1943497618933693E-05  0.1907228530034991E-05  0.1871654077572523E-05  0.1836760611118049E-05
  0.1802534755403804E-05  0.1768963404634668E-05  0.1736033716921058E-05  0.1703733108829383E-05  0.1672049250048205E-05
  0.1640970058166992E-05  0.1610483693565387E-05  0.1580578554410449E-05  0.1551243271759521E-05  0.1522466704766576E-05
  0.1494237935989620E-05  0.1466546266797085E-05  0.1439381212870997E-05  0.1412732499805006E-05  0.1386590058794883E-05
  0.1360944022419912E-05  0.1335784720512874E-05  0.1311102676116916E-05  0.1286888601527334E-05  0.1263133394416454E-05
  0.1239828134039922E-05  0.1216964077522495E-05  0.1194532656221732E-05  0.1172525472167883E-05  0.1150934294578339E-05
  0.1129751056445042E-05  0.1108967851193266E-05  0.1088576929410345E-05  0.1068570695642658E-05  0.1048941705259620E-05
  0.1029682661383050E-05  0.1010786411880709E-05  0.9922459464225075E-06  0.9740543935979908E-06  0.9562050180940302E-06
  0.9386912179311590E-06  0.9215065217574993E-06  0.9046445861989121E-06  0.8880991932643261E-06  0.8718642478049035E-06
  0.8559337750260190E-06  0.8403019180508739E-06  0.8249629355346320E-06  0.8099111993281231E-06  0.7951411921898122E-06
  0.7806475055453219E-06  0.7664248372932432E-06  0.7524679896563905E-06  0.7387718670774905E-06  0.7253314741583537E-06
  0.7121419136416720E-06  0.6991983844344473E-06  0.6864961796722384E-06  0.6740306848233116E-06  0.6617973758319626E-06
  0.6497918172999899E-06  0.6380096607056907E-06  0.6264466426595353E-06  0.6150985831956878E-06  0.6039613840986928E-06
  0.5930310272645333E-06  0.5823035730953953E-06  0.5717751589273792E-06  0.5614419974904361E-06  0.5513003753999817E-06
  0.5413466516793603E-06  0.5315772563126286E-06  0.5219886888269539E-06  0.5125775169040639E-06  0.5033403750200756E-06
  0.4942739631131603E-06  0.4853750452784314E-06  0.4766404484895006E-06  0.4680670613461380E-06  0.4596518328474773E-06
  0.4513917711902770E-06  0.4432839425916488E-06  0.4353254701357975E-06  0.4275135326442395E-06  0.4198453635690128E-06
  0.4123182499084501E-06  0.4049295311449233E-06  0.3976765982042597E-06  0.3905568924362477E-06  0.3835679046158601E-06
  0.3767071739647557E-06  0.3699722871926031E-06  0.3633608775578825E-06  0.3568706239476853E-06  0.3504992499761664E-06
  0.3442445231012366E-06  0.3381042537591626E-06  0.3320762945166106E-06  0.3261585392398882E-06  0.3203489222809336E-06
  0.3146454176797585E-06  0.3090460383829876E-06  0.3035488354781484E-06  0.2981518974434300E-06  0.2928533494125304E-06
  0.2876513524543313E-06  0.2825441028670669E-06  0.2775298314867043E-06  0.2726068030092252E-06  0.2677733153265339E-06
  0.2630276988757200E-06  0.2583683160013746E-06  0.2537935603307190E-06  0.2493018561612556E-06  0.2448916578607205E-06
  0.2405614492790488E-06  0.2363097431721095E-06  0.2321350806370091E-06  0.2280360305586708E-06  0.2240111890674973E-06
  0.2200591790078676E-06  0.2161786494172693E-06  0.2123682750158223E-06  0.2086267557059994E-06  0.2049528160823311E-06
  0.2013452049508772E-06  0.1978026948583081E-06  0.1943240816303254E-06  0.1909081839193155E-06  0.1875538427609842E-06
  0.1842599211398197E-06  0.1810253035631983E-06  0.1778488956439474E-06  0.1747296236912169E-06  0.1716664343094590E-06
  0.1686582940053780E-06  0.1657041888026656E-06  0.1628031238643962E-06  0.1599541231228816E-06  0.1571562289168698E-06
  0.1544085016359322E-06  0.1517100193718773E-06  0.1490598775770672E-06  0.1464571887294814E-06  0.1439010820044101E-06
  0.1413907029526270E-06  0.1389252131849060E-06  0.1365037900627815E-06  0.1341256263953942E-06  0.1317899301423173E-06
  0.1294959241222356E-06  0.1272428457273691E-06  0.1250299466435095E-06  0.1228564925755701E-06  0.1207217629785317E-06
  0.1186250507936737E-06  0.1165656621899989E-06  0.1145429163107181E-06  0.1125561450247276E-06  0.1106046926829531E-06
  0.1086879158794732E-06  0.1068051832173273E-06  0.1049558750789060E-06  0.1031393834008456E-06  0.1013551114533215E-06
  0.9960247362366213E-07  0.9788089520419099E-07  0.9618981218422368E-07  0.9452867104611374E-07  0.9289692856529521E-07
  0.9129405161421862E-07  0.8971951697011502E-07  0.8817281112650738E-07  0.8665343010839327E-07  0.8516087929103340E-07
  0.8369467322226131E-07  0.8225433544825620E-07  0.8083939834270089E-07  0.7944940293926527E-07  0.7808389876734172E-07
  0.7674244369097167E-07  0.7542460375090260E-07  0.7412995300970581E-07  0.7285807339990077E-07  0.7160855457502324E-07
  0.7038099376357774E-07  0.6917499562582533E-07  0.6799017211333308E-07  0.6682614233125213E-07  0.6568253240325319E-07
  0.6455897533907546E-07  0.6345511090463328E-07  0.6237058549463499E-07  0.6130505200765742E-07  0.6025816972363306E-07
  0.5922960418369945E-07  0.5821902707236529E-07  0.5722611610194735E-07  0.5625055489923121E-07  0.5529203289431866E-07
  0.5435024521160855E-07  0.5342489256287795E-07  0.5251568114241815E-07  0.5162232252418367E-07  0.5074453356092218E-07
   42     95.940         3.8581    fcc     
  0.0000000000000000E+00 -0.1136631827235095E+00 -0.2249372966097112E+00 -0.3338491118517841E+00 -0.4404243986429002E+00
 -0.5446889271762370E+00 -0.6466684676449703E+00 -0.7463887902422730E+00 -0.8438756651613231E+00 -0.9391548625952955E+00
 -0.1032252152737366E+01 -0.1123193305780709E+01 -0.1212004091918501E+01 -0.1298710281343916E+01 -0.1383337644250132E+01
 -0.1465911950830323E+01 -0.1546458971277664E+01 -0.1625004475785332E+01 -0.1701574234546500E+01 -0.1776194017754346E+01
 -0.1848889595602045E+01 -0.1919686738282770E+01 -0.1988611215989701E+01 -0.2055688798916009E+01 -0.2120945257254873E+01
 -0.2184406361199467E+01 -0.2246097880942965E+01 -0.2306045586678545E+01 -0.2364275248599382E+01 -0.2420812636898650E+01
 -0.2475683521769525E+01 -0.2528913673405184E+01 -0.2580528861998801E+01 -0.2630554857743552E+01 -0.2679017430832612E+01
 -0.2725942351459158E+01 -0.2771355389816363E+01 -0.2815282316097405E+01 -0.2857748900495458E+01 -0.2898780913203697E+01
 -0.2938404124415300E+01 -0.2976644304323439E+01 -0.3013527223121292E+01 -0.3049078651002035E+01 -0.3083324358158841E+01
 -0.3116290114784887E+01 -0.3148001691073349E+01 -0.3178484857217400E+01 -0.3207765383410219E+01 -0.3235869039844979E+01
 -0.3262821596714856E+01 -0.3288648824213027E+01 -0.3313376492532665E+01 -0.3337030371866947E+01 -0.3359636232409049E+01
 -0.3381219844352144E+01 -0.3401806977889411E+01 -0.3421423403214022E+01 -0.3440094890519155E+01 -0.3457847209997985E+01
 -0.3474706131843686E+01 -0.3490697426249436E+01 -0.3505846863408409E+01 -0.3520180213513780E+01 -0.3533723246758725E+01
 -0.3546501733336420E+01 -0.3558541443440040E+01 -0.3569868147262761E+01 -0.3580507614997757E+01 -0.3590485616838206E+01
 -0.3599827922977281E+01 -0.3608560303608159E+01 -0.3616708528924015E+01 -0.3624298369118024E+01 -0.3631355594383363E+01
 -0.3637905974913206E+01 -0.3643975280900728E+01 -0.3649589282539107E+01 -0.3654773750021516E+01 -0.3659554453541132E+01
 -0.3663957163291130E+01 -0.3668007649464685E+01 -0.3671731682254973E+01 -0.3675155031855170E+01 -0.3678303468458450E+01
 -0.3681202762257990E+01 -0.3683878683446965E+01 -0.3686357002218550E+01 -0.3688663488765921E+01 -0.3690823913282253E+01
 -0.3692864045960722E+01 -0.3694804651040448E+01 -0.3696647961359639E+01 -0.3698389640990725E+01 -0.3700025769718482E+01
 -0.3701552427327690E+01 -0.3702965693603129E+01 -0.3704261648329574E+01 -0.3705436371291806E+01 -0.3706485942274604E+01
 -0.3707406441062746E+01 -0.3708193947441010E+01 -0.3708844541194175E+01 -0.3709354302107020E+01 -0.3709719309964322E+01
 -0.3709935644550863E+01 -0.3709999385651418E+01 -0.3709906613050768E+01 -0.3709653406533690E+01 -0.3709235845884964E+01
